{"learner":{"attributes":{"best_iteration":"267","best_score":"0.3424414733358786","scikit_learn":"{\"_estimator_type\": \"classifier\"}"},"feature_names":["age","sex","systolic_bp","cholesterol","fasting_glucose_high","resting_ecg","max_hr","exercise_angina","st_depression","st_slope","num_vessels","thal","diastolic_bp","bmi","heart_rate","glucose","smoking_current","cigs_per_day","bp_meds","prevalent_stroke","hypertension","diabetes","bmi_was_missing","bp_meds_was_missing","cigs_per_day_was_missing","diabetes_was_missing","diastolic_bp_was_missing","glucose_was_missing","heart_rate_was_missing","hypertension_was_missing","prevalent_stroke_was_missing","smoking_current_was_missing","pulse_pressure","high_chol_flag","stroke","alcohol_drinking","physical_health_days","mental_health_days","diff_walking","physical_activity","gen_health","sleep_time","asthma","kidney_disease","skin_cancer","stroke_was_missing","alcohol_drinking_was_missing","physical_health_days_was_missing","mental_health_days_was_missing","diff_walking_was_missing","physical_activity_was_missing","gen_health_was_missing","sleep_time_was_missing","asthma_was_missing","kidney_disease_was_missing","skin_cancer_was_missing","race_Asian","race_Black","race_Hispanic","race_Other","race_Unknown","race_White"],"feature_types":["float","int","float","float","float","float","float","float","float","float","float","float","float","float","float","float","float","float","float","float","float","float","float","float","float","float","float","float","float","float","float","float","float","float","float","float","float","float","float","float","float","float","float","float","float","int","int","int","int","int","int","int","int","int","int","int","float","float","float","float","float","float"],"gradient_booster":{"model":{"cats":{"enc":[],"feature_segments":[],"sorted_idx":[]},"gbtree_model_param":{"num_parallel_tree":"1","num_trees":"318"},"iteration_indptr":[0,1,2,3,4,5,6,7,8,9,10,11,12,13,14,15,16,17,18,19,20,21,22,23,24,25,26,27,28,29,30,31,32,33,34,35,36,37,38,39,40,41,42,43,44,45,46,47,48,49,50,51,52,53,54,55,56,57,58,59,60,61,62,63,64,65,66,67,68,69,70,71,72,73,74,75,76,77,78,79,80,81,82,83,84,85,86,87,88,89,90,91,92,93,94,95,96,97,98,99,100,101,102,103,104,105,106,107,108,109,110,111,112,113,114,115,116,117,118,119,120,121,122,123,124,125,126,127,128,129,130,131,132,133,134,135,136,137,138,139,140,141,142,143,144,145,146,147,148,149,150,151,152,153,154,155,156,157,158,159,160,161,162,163,164,165,166,167,168,169,170,171,172,173,174,175,176,177,178,179,180,181,182,183,184,185,186,187,188,189,190,191,192,193,194,195,196,197,198,199,200,201,202,203,204,205,206,207,208,209,210,211,212,213,214,215,216,217,218,219,220,221,222,223,224,225,226,227,228,229,230,231,232,233,234,235,236,237,238,239,240,241,242,243,244,245,246,247,248,249,250,251,252,253,254,255,256,257,258,259,260,261,262,263,264,265,266,267,268,269,270,271,272,273,274,275,276,277,278,279,280,281,282,283,284,285,286,287,288,289,290,291,292,293,294,295,296,297,298,299,300,301,302,303,304,305,306,307,308,309,310,311,312,313,314,315,316,317,318],"tree_info":[0,0,0,0,0,0,0,0,0,0,0,0,0,0,0,0,0,0,0,0,0,0,0,0,0,0,0,0,0,0,0,0,0,0,0,0,0,0,0,0,0,0,0,0,0,0,0,0,0,0,0,0,0,0,0,0,0,0,0,0,0,0,0,0,0,0,0,0,0,0,0,0,0,0,0,0,0,0,0,0,0,0,0,0,0,0,0,0,0,0,0,0,0,0,0,0,0,0,0,0,0,0,0,0,0,0,0,0,0,0,0,0,0,0,0,0,0,0,0,0,0,0,0,0,0,0,0,0,0,0,0,0,0,0,0,0,0,0,0,0,0,0,0,0,0,0,0,0,0,0,0,0,0,0,0,0,0,0,0,0,0,0,0,0,0,0,0,0,0,0,0,0,0,0,0,0,0,0,0,0,0,0,0,0,0,0,0,0,0,0,0,0,0,0,0,0,0,0,0,0,0,0,0,0,0,0,0,0,0,0,0,0,0,0,0,0,0,0,0,0,0,0,0,0,0,0,0,0,0,0,0,0,0,0,0,0,0,0,0,0,0,0,0,0,0,0,0,0,0,0,0,0,0,0,0,0,0,0,0,0,0,0,0,0,0,0,0,0,0,0,0,0,0,0,0,0,0,0,0,0,0,0,0,0,0,0,0,0,0,0,0,0,0,0,0,0,0,0,0,0,0,0,0,0,0,0,0,0,0,0,0,0,0,0,0,0,0,0],"trees":[{"base_weights":[-8.517048E-3,-1.1998253E0,4.7536373E-1,-2.6585186E-1,-1.5503573E0,8.18731E-1,-4.3644515E-1,1.4217855E-1,-2.6187142E-2,-9.1134675E-2,-1.3178763E-1,4.791746E-2,9.0002194E-2,-4.837649E-2,4.7130115E-2],"categories":[],"categories_nodes":[],"categories_segments":[],"categories_sizes":[],"default_left":[0,1,1,0,0,1,0,0,0,0,0,0,0,0,0],"id":0,"left_children":[1,3,5,7,9,11,13,-1,-1,-1,-1,-1,-1,-1,-1],"loss_changes":[9.582192E3,1.5719111E3,3.7010535E3,1.4380496E2,9.54043E1,5.6418896E2,5.10398E2,0E0,0E0,0E0,0E0,0E0,0E0,0E0,0E0],"parents":[2147483647,0,0,1,1,2,2,3,3,4,4,5,5,6,6],"right_children":[2,4,6,8,10,12,14,-1,-1,-1,-1,-1,-1,-1,-1],"split_conditions":[4.8E1,3E0,4E0,4E0,6E0,1E0,1E0,1.4217855E-1,-2.6187142E-2,-9.1134675E-2,-1.3178763E-1,4.791746E-2,9.0002194E-2,-4.837649E-2,4.7130115E-2],"split_indices":[0,40,40,8,41,38,38,0,0,0,0,0,0,0,0],"split_type":[0,0,0,0,0,0,0,0,0,0,0,0,0,0,0],"sum_hessian":[1.6622701E4,4.8015044E3,1.1821195E4,1.3103136E3,3.491191E3,8.5873955E3,3.2338E3,3.4772728E1,1.2755409E3,4.4131818E2,3.0498728E3,4.717632E3,3.8697637E3,2.8030227E3,4.3077728E2],"tree_param":{"num_deleted":"0","num_feature":"62","num_nodes":"15","size_leaf_vector":"1"}},{"base_weights":[-1.4843751E-3,-1.7391358E-1,8.008492E-1,-5.483148E-1,7.511907E-1,3.8552594E-1,1.1931552E0,-5.211146E-2,1.8655732E-2,5.594691E-2,9.008665E-2,1.366752E-4,7.4386105E-2,9.116206E-2,1.16063856E-1],"categories":[],"categories_nodes":[],"categories_segments":[],"categories_sizes":[],"default_left":[0,0,0,0,0,0,0,0,0,0,0,0,0,0,0],"id":1,"left_children":[1,3,5,7,9,11,13,-1,-1,-1,-1,-1,-1,-1,-1],"loss_changes":[2.3005503E3,4.7408145E3,4.7924207E2,6.781028E2,9.191821E1,2.8796582E2,2.6523926E1,0E0,0E0,0E0,0E0,0E0,0E0,0E0,0E0],"parents":[2147483647,0,0,1,1,2,2,3,3,4,4,5,5,6,6],"right_children":[2,4,6,8,10,12,14,-1,-1,-1,-1,-1,-1,-1,-1],"split_conditions":[1E0,1E0,1E0,1E0,1E0,5.3E1,1E0,-5.211146E-2,1.8655732E-2,5.594691E-2,9.008665E-2,1.366752E-4,7.4386105E-2,9.116206E-2,1.16063856E-1],"split_indices":[43,38,22,44,44,32,44,0,0,0,0,0,0,0,0],"split_type":[0,0,0,0,0,0,0,0,0,0,0,0,0,0,0],"sum_hessian":[1.6629094E4,1.368754E4,2.9415542E3,9.744033E3,3.943506E3,1.4288899E3,1.5126644E3,8.73624E3,1.007793E3,3.3177085E3,6.257975E2,8.254658E2,6.0342413E2,1.1296094E3,3.83055E2],"tree_param":{"num_deleted":"0","num_feature":"62","num_nodes":"15","size_leaf_vector":"1"}},{"base_weights":[2.1307238E-3,4.0675288E-1,-8.431973E-1,7.167389E-1,1.9021815E-4,-9.3243897E-1,-1.1877671E-1,9.645602E-2,4.4187028E-2,-1.7133914E-2,4.694066E-2,-8.322667E-2,8.795326E-3,-6.6447064E-2,2.7659586E-2],"categories":[],"categories_nodes":[],"categories_segments":[],"categories_sizes":[],"default_left":[1,1,0,0,0,0,0,0,0,0,0,0,0,0,0],"id":2,"left_children":[1,3,5,7,9,11,13,-1,-1,-1,-1,-1,-1,-1,-1],"loss_changes":[5.6794536E3,1.4152399E3,3.4746924E2,5.197986E2,5.858481E2,4.2991064E2,1.8731592E2,0E0,0E0,0E0,0E0,0E0,0E0,0E0,0E0],"parents":[2147483647,0,0,1,1,2,2,3,3,4,4,5,5,6,6],"right_children":[2,4,6,8,10,12,14,-1,-1,-1,-1,-1,-1,-1,-1],"split_conditions":[4E0,3E0,1E0,2E0,1E0,1E0,1E0,9.645602E-2,4.4187028E-2,-1.7133914E-2,4.694066E-2,-8.322667E-2,8.795326E-3,-6.6447064E-2,2.7659586E-2],"split_indices":[40,40,44,40,38,38,1,0,0,0,0,0,0,0,0],"split_type":[0,0,0,0,0,0,0,0,0,0,0,0,0,0,0],"sum_hessian":[1.660475E4,1.1229635E4,5.375115E3,6.371552E3,4.858083E3,4.7855493E3,5.8956635E2,1.7508805E3,4.6206714E3,3.5577961E3,1.3002867E3,4.4186597E3,3.6688937E2,2.3409103E2,3.5547534E2],"tree_param":{"num_deleted":"0","num_feature":"62","num_nodes":"15","size_leaf_vector":"1"}},{"base_weights":[5.1043886E-3,-1.0430335E0,4.267739E-1,-1.2287258E0,8.293733E-2,3.115897E-1,1.2946943E0,-1.1443757E-1,-7.7548265E-2,-2.5949279E-2,9.3148075E-2,1.4722198E-3,5.6941207E-2,1.0315642E-1,1.1459366E-1],"categories":[],"categories_nodes":[],"categories_segments":[],"categories_sizes":[],"default_left":[0,0,1,0,0,0,0,0,0,0,0,0,0,0,0],"id":3,"left_children":[1,3,5,7,9,11,13,-1,-1,-1,-1,-1,-1,-1,-1],"loss_changes":[7.320789E3,9.9359863E2,1.1808259E3,1.9616846E2,2.8495535E2,1.1799805E3,4.711426E0,0E0,0E0,0E0,0E0,0E0,0E0,0E0,0E0],"parents":[2147483647,0,0,1,1,2,2,3,3,4,4,5,5,6,6],"right_children":[2,4,6,8,10,12,14,-1,-1,-1,-1,-1,-1,-1,-1],"split_conditions":[4.8E1,1E0,1E0,3.8E1,1.065E2,6.8E1,8.2E1,-1.1443757E-1,-7.7548265E-2,-2.5949279E-2,9.3148075E-2,1.4722198E-3,5.6941207E-2,1.0315642E-1,1.1459366E-1],"split_indices":[0,34,34,0,12,0,0,0,0,0,0,0,0,0,0],"split_type":[0,0,0,0,0,0,0,0,0,0,0,0,0,0,0],"sum_hessian":[1.6564107E4,4.752021E3,1.1812087E4,4.0792944E3,6.7272656E2,1.0428163E4,1.3839237E3,2.5241829E3,1.5551117E3,4.8786578E2,1.8486076E2,5.9196475E3,4.5085156E3,1.0685671E3,3.153565E2],"tree_param":{"num_deleted":"0","num_feature":"62","num_nodes":"15","size_leaf_vector":"1"}},{"base_weights":[2.2136252E-3,-1.4567365E-1,6.9062316E-1,-9.6635294E-1,3.4947416E-1,-1.074912E-1,9.401719E-1,-1.2467104E-2,-9.5549285E-2,5.3458627E-2,-2.6069505E-2,1.2443498E-1,-1.657548E-2,1.0326866E-1,6.107898E-2],"categories":[],"categories_nodes":[],"categories_segments":[],"categories_sizes":[],"default_left":[0,0,0,0,0,0,0,0,0,0,0,0,0,0,0],"id":4,"left_children":[1,3,5,7,9,11,13,-1,-1,-1,-1,-1,-1,-1,-1],"loss_changes":[1.6784828E3,5.514816E3,5.8069165E2,8.448164E2,1.7257006E3,1.0802191E2,1.3845667E2,0E0,0E0,0E0,0E0,0E0,0E0,0E0,0E0],"parents":[2147483647,0,0,1,1,2,2,3,3,4,4,5,5,6,6],"right_children":[2,4,6,8,10,12,14,-1,-1,-1,-1,-1,-1,-1,-1],"split_conditions":[1E0,5.3E1,4.9E1,3E0,4E0,1E0,3E0,-1.2467104E-2,-9.5549285E-2,5.3458627E-2,-2.6069505E-2,1.2443498E-1,-1.657548E-2,1.0326866E-1,6.107898E-2],"split_indices":[43,0,0,40,40,4,40,0,0,0,0,0,0,0,0],"split_type":[0,0,0,0,0,0,0,0,0,0,0,0,0,0,0],"sum_hessian":[1.6486783E4,1.3571303E4,2.9154814E3,5.1069194E3,8.464383E3,6.944331E2,2.2210483E3,1.0208595E3,4.08606E3,5.8131772E3,2.6512058E3,3.8371124E1,6.5606195E2,8.2773456E2,1.3933138E3],"tree_param":{"num_deleted":"0","num_feature":"62","num_nodes":"15","size_leaf_vector":"1"}},{"base_weights":[4.0616116E-5,3.61083E-1,-2.4639915E-1,1.1135409E-1,9.378039E-1,-4.8446068E-1,6.362689E-1,1.4117335E-2,-5.779783E-2,6.974731E-2,9.703126E-2,-4.6778847E-2,1.4554178E-2,4.403819E-2,9.3339905E-2],"categories":[],"categories_nodes":[],"categories_segments":[],"categories_sizes":[],"default_left":[1,0,0,0,0,0,0,0,0,0,0,0,0,0,0],"id":5,"left_children":[1,3,5,7,9,11,13,-1,-1,-1,-1,-1,-1,-1,-1],"loss_changes":[1.4546145E3,9.551715E2,2.0416771E3,2.3291939E2,4.2036255E1,4.471162E2,1.0151807E2,0E0,0E0,0E0,0E0,0E0,0E0,0E0,0E0],"parents":[2147483647,0,0,1,1,2,2,3,3,4,4,5,5,6,6],"right_children":[2,4,6,8,10,12,14,-1,-1,-1,-1,-1,-1,-1,-1],"split_conditions":[1E0,1E0,1E0,1E0,1E0,1E0,1E0,1.4117335E-2,-5.779783E-2,6.974731E-2,9.703126E-2,-4.6778847E-2,1.4554178E-2,4.403819E-2,9.3339905E-2],"split_indices":[39,21,21,58,43,44,43,0,0,0,0,0,0,0,0],"split_type":[0,0,0,0,0,0,0,0,0,0,0,0,0,0,0],"sum_hessian":[1.6348506E4,6.632203E3,9.716303E3,4.6281743E3,2.0040284E3,7.6524204E3,2.0638826E3,4.3050845E3,3.2309015E2,1.5000625E3,5.03966E2,6.7537373E3,8.986832E2,1.7315835E3,3.3229913E2],"tree_param":{"num_deleted":"0","num_feature":"62","num_nodes":"15","size_leaf_vector":"1"}},{"base_weights":[-2.3964455E-3,3.3031577E-1,-7.023302E-1,1.7947552E-1,7.3594713E-1,-7.342254E-1,-1.6016331E-1,-6.0762856E-2,4.122112E-2,-4.2763565E-2,6.663107E-2,-9.189065E-2,-3.5914693E-3,-9.4619565E-2,3.0067805E-2],"categories":[],"categories_nodes":[],"categories_segments":[],"categories_sizes":[],"default_left":[1,1,0,0,0,0,0,0,0,0,0,0,0,0,0],"id":6,"left_children":[1,3,5,7,9,11,13,-1,-1,-1,-1,-1,-1,-1,-1],"loss_changes":[3.7761523E3,6.7245386E2,9.032324E1,2.40497E3,2.9907104E2,1.3304338E3,1.5308308E2,0E0,0E0,0E0,0E0,0E0,0E0,0E0,0E0],"parents":[2147483647,0,0,1,1,2,2,3,3,4,4,5,5,6,6],"right_children":[2,4,6,8,10,12,14,-1,-1,-1,-1,-1,-1,-1,-1],"split_conditions":[4E0,1.5E1,8E0,4.8E1,3.8E1,6.3E1,5.3E1,-6.0762856E-2,4.122112E-2,-4.2763565E-2,6.663107E-2,-9.189065E-2,-3.5914693E-3,-9.4619565E-2,3.0067805E-2],"split_indices":[40,36,36,0,0,0,0,0,0,0,0,0,0,0,0],"split_type":[0,0,0,0,0,0,0,0,0,0,0,0,0,0,0],"sum_hessian":[1.6215219E4,1.0990753E4,5.2244663E3,8.0115815E3,2.979171E3,4.9341514E3,2.9031485E2,2.0864377E3,5.925144E3,1.7730515E2,2.801866E3,3.150918E3,1.7832334E3,1.00486336E2,1.898285E2],"tree_param":{"num_deleted":"0","num_feature":"62","num_nodes":"15","size_leaf_vector":"1"}},{"base_weights":[7.1533993E-3,-8.323297E-1,3.373302E-1,-1.4706331E-1,-9.750853E-1,7.5407386E-2,6.577125E-1,-1.8330976E-2,1.2276447E-1,-8.8255845E-2,5.873131E-5,3.2868803E-2,-1.708153E-2,3.7549037E-2,8.2242146E-2],"categories":[],"categories_nodes":[],"categories_segments":[],"categories_sizes":[],"default_left":[0,1,0,1,0,1,0,0,0,0,0,0,0,0,0],"id":7,"left_children":[1,3,5,7,9,11,13,-1,-1,-1,-1,-1,-1,-1,-1],"loss_changes":[4.4946387E3,4.477644E2,9.766183E2,1.0066408E2,3.8921753E2,5.95651E2,3.6186523E2,0E0,0E0,0E0,0E0,0E0,0E0,0E0,0E0],"parents":[2147483647,0,0,1,1,2,2,3,3,4,4,5,5,6,6],"right_children":[2,4,6,8,10,12,14,-1,-1,-1,-1,-1,-1,-1,-1],"split_conditions":[4.8E1,5E0,6.8E1,1.3E2,1E0,1E0,1E0,-1.8330976E-2,1.2276447E-1,-8.8255845E-2,5.873131E-5,3.2868803E-2,-1.708153E-2,3.7549037E-2,8.2242146E-2],"split_indices":[0,41,0,6,21,39,21,0,0,0,0,0,0,0,0],"split_type":[0,0,0,0,0,0,0,0,0,0,0,0,0,0,0],"sum_hessian":[1.621576E4,4.5774365E3,1.1638323E4,7.8920374E2,3.7882327E3,6.403407E3,5.2349165E3,7.538827E2,3.5321014E1,3.4193271E3,3.689055E2,2.9795044E3,3.4239028E3,3.3398206E3,1.8950958E3],"tree_param":{"num_deleted":"0","num_feature":"62","num_nodes":"15","size_leaf_vector":"1"}},{"base_weights":[-3.3886302E-3,-1.1584504E-1,1.0907276E0,-3.9624077E-1,2.886552E-1,9.376364E-1,1.2252091E0,-5.1059984E-3,-5.883492E-2,6.800129E-2,1.2830404E-2,8.735869E-2,6.0075983E-2,1.0332901E-1,6.553111E-2],"categories":[],"categories_nodes":[],"categories_segments":[],"categories_sizes":[],"default_left":[1,0,0,0,0,0,0,0,0,0,0,0,0,0,0],"id":8,"left_children":[1,3,5,7,9,11,13,-1,-1,-1,-1,-1,-1,-1,-1],"loss_changes":[1.9680692E3,1.6451259E3,3.064148E1,9.262201E2,4.2489478E2,1.8534851E1,1.3270264E1,0E0,0E0,0E0,0E0,0E0,0E0,0E0,0E0],"parents":[2147483647,0,0,1,1,2,2,3,3,4,4,5,5,6,6],"right_children":[2,4,6,8,10,12,14,-1,-1,-1,-1,-1,-1,-1,-1],"split_conditions":[1E0,3E0,1E0,4E0,2E0,3E0,1E0,-5.1059984E-3,-5.883492E-2,6.800129E-2,1.2830404E-2,8.735869E-2,6.0075983E-2,1.0332901E-1,6.553111E-2],"split_indices":[34,36,1,40,40,40,57,0,0,0,0,0,0,0,0],"split_type":[0,0,0,0,0,0,0,0,0,0,0,0,0,0,0],"sum_hessian":[1.5995492E4,1.4504682E4,1.4908108E3,8.566513E3,5.938169E3,6.972528E2,7.93558E2,4.219739E3,4.346774E3,1.1570066E3,4.781162E3,4.2212027E2,2.7513254E2,7.2545807E2,6.80999E1],"tree_param":{"num_deleted":"0","num_feature":"62","num_nodes":"15","size_leaf_vector":"1"}},{"base_weights":[5.7645687E-3,-7.638881E-1,3.050758E-1,-9.733065E-1,-1.7605138E-1,4.5709E-2,5.705594E-1,-8.4228106E-2,-2.2588575E-2,-5.518098E-2,7.762476E-3,-3.7448797E-2,2.6077382E-2,3.2053288E-2,6.855761E-2],"categories":[],"categories_nodes":[],"categories_segments":[],"categories_sizes":[],"default_left":[0,0,0,0,0,0,0,0,0,0,0,0,0,0,0],"id":9,"left_children":[1,3,5,7,9,11,13,-1,-1,-1,-1,-1,-1,-1,-1],"loss_changes":[3.682189E3,5.509319E2,7.9244006E2,1.3277686E2,1.5917792E2,8.026919E2,2.7224023E2,0E0,0E0,0E0,0E0,0E0,0E0,0E0,0E0],"parents":[2147483647,0,0,1,1,2,2,3,3,4,4,5,5,6,6],"right_children":[2,4,6,8,10,12,14,-1,-1,-1,-1,-1,-1,-1,-1],"split_conditions":[4.8E1,8E0,2E0,1E0,4E1,6.3E1,6.8E1,-8.4228106E-2,-2.2588575E-2,-5.518098E-2,7.762476E-3,-3.7448797E-2,2.6077382E-2,3.2053288E-2,6.855761E-2],"split_indices":[0,36,36,21,0,0,0,0,0,0,0,0,0,0,0],"split_type":[0,0,0,0,0,0,0,0,0,0,0,0,0,0,0],"sum_hessian":[1.5984147E4,4.475559E3,1.1508588E4,3.2999155E3,1.1756433E3,5.8214014E3,5.687187E3,3.0472864E3,2.5262909E2,4.1363324E2,7.620101E2,2.0474706E3,3.773931E3,3.4195E3,2.2676868E3],"tree_param":{"num_deleted":"0","num_feature":"62","num_nodes":"15","size_leaf_vector":"1"}},{"base_weights":[-1.8047248E-3,-1.0593529E-1,1.015444E0,-3.8202405E-1,3.8653043E-1,1.2039704E-1,9.903492E-1,-5.0506495E-2,-1.0709916E-2,1.0356318E-3,3.800224E-2,7.377707E-2,8.5635975E-2],"categories":[],"categories_nodes":[],"categories_segments":[],"categories_sizes":[],"default_left":[1,0,0,0,0,0,0,0,0,0,0,0,0],"id":10,"left_children":[1,3,5,7,9,-1,11,-1,-1,-1,-1,-1,-1],"loss_changes":[1.6705066E3,1.9451285E3,1.6786865E1,5.43385E2,1.5113403E2,0E0,6.9716797E0,0E0,0E0,0E0,0E0,0E0,0E0],"parents":[2147483647,0,0,1,1,2,2,3,3,4,4,6,6],"right_children":[2,4,6,8,10,-1,12,-1,-1,-1,-1,-1,-1],"split_conditions":[1E0,1E0,4E0,1E0,1E0,1.2039704E-1,1E0,-5.0506495E-2,-1.0709916E-2,1.0356318E-3,3.800224E-2,7.377707E-2,8.5635975E-2],"split_indices":[34,38,41,16,20,0,16,0,0,0,0,0,0],"split_type":[0,0,0,0,0,0,0,0,0,0,0,0,0],"sum_hessian":[1.5770601E4,1.4306174E4,1.4644263E3,9.1669795E3,5.1391943E3,7.596074E1,1.3884656E3,4.7215317E3,4.445448E3,8.934685E2,4.2457256E3,5.544286E2,8.34037E2],"tree_param":{"num_deleted":"0","num_feature":"62","num_nodes":"13","size_leaf_vector":"1"}},{"base_weights":[-1.7898505E-3,-4.855243E-1,4.0978858E-1,-6.3758945E-1,1.7139943E-1,2.305213E-1,7.7427834E-1,-6.509307E-2,5.8405255E-3,-3.2741882E-2,3.5626903E-2,5.761202E-3,4.080693E-2,4.8034865E-2,7.476325E-2],"categories":[],"categories_nodes":[],"categories_segments":[],"categories_sizes":[],"default_left":[0,0,0,0,0,0,0,0,0,0,0,0,0,0,0],"id":11,"left_children":[1,3,5,7,9,11,13,-1,-1,-1,-1,-1,-1,-1,-1],"loss_changes":[3.1176682E3,7.191189E2,5.5280115E2,6.600508E2,2.0496051E2,2.4408463E2,7.318176E1,0E0,0E0,0E0,0E0,0E0,0E0,0E0,0E0],"parents":[2147483647,0,0,1,1,2,2,3,3,4,4,5,5,6,6],"right_children":[2,4,6,8,10,12,14,-1,-1,-1,-1,-1,-1,-1,-1],"split_conditions":[5.8E1,1E0,1E0,1E0,8.2E1,1E0,1E0,-6.509307E-2,5.8405255E-3,-3.2741882E-2,3.5626903E-2,5.761202E-3,4.080693E-2,4.8034865E-2,7.476325E-2],"split_indices":[0,43,21,38,12,38,16,0,0,0,0,0,0,0,0],"split_type":[0,0,0,0,0,0,0,0,0,0,0,0,0,0,0],"sum_hessian":[1.5659214E4,7.1986206E3,8.460593E3,5.8455283E3,1.353092E3,5.6713257E3,2.7892673E3,4.7735747E3,1.0719539E3,4.2795862E2,9.2513336E2,3.5562805E3,2.1150452E3,1.2014353E3,1.5878322E3],"tree_param":{"num_deleted":"0","num_feature":"62","num_nodes":"15","size_leaf_vector":"1"}},{"base_weights":[-7.0442366E-3,-9.864461E-2,9.18637E-1,-7.341459E-1,1.6355097E-1,8.16909E-1,1.0274818E0,-7.272979E-2,-1.9202162E-2,-4.8559727E-3,3.734072E-2,1.5641665E-1,6.559882E-2,9.439895E-2,8.2272686E-2],"categories":[],"categories_nodes":[],"categories_segments":[],"categories_sizes":[],"default_left":[1,0,0,0,0,0,0,0,0,0,0,0,0,0,0],"id":12,"left_children":[1,3,5,7,9,11,13,-1,-1,-1,-1,-1,-1,-1,-1],"loss_changes":[1.3124723E3,2.346945E3,1.5389038E1,3.2061108E2,6.5271875E2,1.0924377E1,1.7039185E0,0E0,0E0,0E0,0E0,0E0,0E0,0E0,0E0],"parents":[2147483647,0,0,1,1,2,2,3,3,4,4,5,5,6,6],"right_children":[2,4,6,8,10,12,14,-1,-1,-1,-1,-1,-1,-1,-1],"split_conditions":[1E0,4.8E1,9E0,1.2E1,6.8E1,2.7E1,4.8E1,-7.272979E-2,-1.9202162E-2,-4.8559727E-3,3.734072E-2,1.5641665E-1,6.559882E-2,9.439895E-2,8.2272686E-2],"split_indices":[34,0,36,36,0,0,0,0,0,0,0,0,0,0,0],"split_type":[0,0,0,0,0,0,0,0,0,0,0,0,0,0,0],"sum_hessian":[1.54788125E4,1.4085058E4,1.3937548E3,4.1139307E3,9.971127E3,7.205447E2,6.7321E2,3.1334304E3,9.805001E2,5.666499E3,4.304628E3,8.980769E0,7.115639E2,9.214385E1,5.8106616E2],"tree_param":{"num_deleted":"0","num_feature":"62","num_nodes":"15","size_leaf_vector":"1"}},{"base_weights":[-3.2264873E-4,-2.299002E-1,2.0586328E-1,-4.0712565E-1,3.7937385E-1,1.4743981E-2,7.2242427E-1,-4.8974972E-2,5.795036E-3,1.0942041E-2,5.037179E-2,-1.495163E-2,2.8270116E-2,4.3241873E-2,6.4748965E-2],"categories":[],"categories_nodes":[],"categories_segments":[],"categories_sizes":[],"default_left":[0,0,0,0,0,0,0,0,0,0,0,0,0,0,0],"id":13,"left_children":[1,3,5,7,9,11,13,-1,-1,-1,-1,-1,-1,-1,-1],"loss_changes":[7.277167E2,7.854601E2,7.9958795E2,5.1830963E2,9.5421646E1,3.873943E2,2.9612915E1,0E0,0E0,0E0,0E0,0E0,0E0,0E0,0E0],"parents":[2147483647,0,0,1,1,2,2,3,3,4,4,5,5,6,6],"right_children":[2,4,6,8,10,12,14,-1,-1,-1,-1,-1,-1,-1,-1],"split_conditions":[1E0,1E0,1E0,1E0,1E0,1E0,1E0,-4.8974972E-2,5.795036E-3,1.0942041E-2,5.037179E-2,-1.495163E-2,2.8270116E-2,4.3241873E-2,6.4748965E-2],"split_indices":[16,21,21,38,38,38,61,0,0,0,0,0,0,0,0],"split_type":[0,0,0,0,0,0,0,0,0,0,0,0,0,0,0],"sum_hessian":[1.5373526E4,7.2741934E3,8.099333E3,5.635096E3,1.6390969E3,5.9120244E3,2.1873086E3,4.0180918E3,1.6170046E3,8.057009E2,8.3339606E2,3.7020962E3,2.2099282E3,5.8323206E2,1.6040767E3],"tree_param":{"num_deleted":"0","num_feature":"62","num_nodes":"15","size_leaf_vector":"1"}},{"base_weights":[-9.710289E-4,-6.210919E-1,2.292014E-1,-8.79332E-1,-3.0765387E-1,-4.9604725E-2,4.7979897E-1,1.3324298E-1,-7.333468E-2,-3.4284554E-2,2.4832444E-2,-1.7670812E-2,3.1065203E-2,2.8087933E-2,5.997968E-2],"categories":[],"categories_nodes":[],"categories_segments":[],"categories_sizes":[],"default_left":[0,0,0,0,0,0,0,0,0,0,0,0,0,0,0],"id":14,"left_children":[1,3,5,7,9,11,13,-1,-1,-1,-1,-1,-1,-1,-1],"loss_changes":[2.1798367E3,3.3459485E2,7.7818665E2,1.04583984E2,1.2797304E2,3.7782773E2,2.0289136E2,0E0,0E0,0E0,0E0,0E0,0E0,0E0,0E0],"parents":[2147483647,0,0,1,1,2,2,3,3,4,4,5,5,6,6],"right_children":[2,4,6,8,10,12,14,-1,-1,-1,-1,-1,-1,-1,-1],"split_conditions":[4.8E1,4E1,1E0,3E0,1E0,1E0,5E-1,1.3324298E-1,-7.333468E-2,-3.4284554E-2,2.4832444E-2,-1.7670812E-2,3.1065203E-2,2.8087933E-2,5.997968E-2],"split_indices":[0,0,1,11,21,21,21,0,0,0,0,0,0,0,0],"split_type":[0,0,0,0,0,0,0,0,0,0,0,0,0,0,0],"sum_hessian":[1.5271878E4,4.1340884E3,1.1137789E4,2.2665847E3,1.8675038E3,5.27212E3,5.865669E3,1.646695E1,2.250118E3,1.5784186E3,2.8908517E2,3.7989407E3,1.4731796E3,3.8228762E3,2.0427927E3],"tree_param":{"num_deleted":"0","num_feature":"62","num_nodes":"15","size_leaf_vector":"1"}},{"base_weights":[6.308317E-3,-7.685904E-2,8.53349E-1,-2.3146112E-1,3.2431698E-1,6.74321E-1,1.0009686E0,2.4423923E-3,-4.551105E-2,5.8316845E-2,1.5519841E-2,6.553112E-2,3.8523637E-2,7.9496436E-2,9.684197E-2],"categories":[],"categories_nodes":[],"categories_segments":[],"categories_sizes":[],"default_left":[1,0,0,0,0,0,0,0,0,0,0,0,0,0,0],"id":15,"left_children":[1,3,5,7,9,11,13,-1,-1,-1,-1,-1,-1,-1,-1],"loss_changes":[1.0728745E3,8.6011633E2,3.594641E1,8.5201135E2,2.0185043E2,1.5924683E1,3.7800293E0,0E0,0E0,0E0,0E0,0E0,0E0,0E0,0E0],"parents":[2147483647,0,0,1,1,2,2,3,3,4,4,5,5,6,6],"right_children":[2,4,6,8,10,12,14,-1,-1,-1,-1,-1,-1,-1,-1],"split_conditions":[1E0,1.5E1,1E0,4E0,2E0,3E0,2.1E1,2.4423923E-3,-4.551105E-2,5.8316845E-2,1.5519841E-2,6.553112E-2,3.8523637E-2,7.9496436E-2,9.684197E-2],"split_indices":[34,36,1,40,40,40,37,0,0,0,0,0,0,0,0],"split_type":[0,0,0,0,0,0,0,0,0,0,0,0,0,0,0],"sum_hessian":[1.5229459E4,1.3867812E4,1.3616482E3,1.0010212E4,3.8575994E3,6.1543396E2,7.462143E2,5.553278E3,4.456934E3,9.890964E2,2.868503E3,3.7733334E2,2.381006E2,6.4854E2,9.767433E1],"tree_param":{"num_deleted":"0","num_feature":"62","num_nodes":"15","size_leaf_vector":"1"}},{"base_weights":[3.2094659E-3,-2.0532446E-1,3.4566167E-1,5.4149847E-2,-5.109555E-1,7.38493E-1,2.453595E-1,2.8474081E-2,-8.075949E-3,-3.238935E-2,-5.971878E-2,6.10696E-2,4.63794E-2,-1.4633113E-2,2.4436789E-2],"categories":[],"categories_nodes":[],"categories_segments":[],"categories_sizes":[],"default_left":[0,0,0,0,0,0,0,0,0,0,0,0,0,0,0],"id":16,"left_children":[1,3,5,7,9,11,13,-1,-1,-1,-1,-1,-1,-1,-1],"loss_changes":[1.0761338E3,7.4275183E2,2.246983E2,2.2818977E2,1.0831091E2,1.7678223E0,1.0372153E2,0E0,0E0,0E0,0E0,0E0,0E0,0E0,0E0],"parents":[2147483647,0,0,1,1,2,2,3,3,4,4,5,5,6,6],"right_children":[2,4,6,8,10,12,14,-1,-1,-1,-1,-1,-1,-1,-1],"split_conditions":[1E0,4E0,2E0,3E0,5E0,1E0,1.255E2,2.8474081E-2,-8.075949E-3,-3.238935E-2,-5.971878E-2,6.10696E-2,4.63794E-2,-1.4633113E-2,2.4436789E-2],"split_indices":[38,40,40,40,40,59,2,0,0,0,0,0,0,0,0],"split_type":[0,0,0,0,0,0,0,0,0,0,0,0,0,0,0],"sum_hessian":[1.5069132E4,9.365815E3,5.7033164E3,5.065359E3,4.300457E3,1.1599927E3,4.5433237E3,1.7323151E3,3.3330437E3,2.8291196E3,1.4713374E3,1.101284E3,5.8708694E1,5.1083267E2,4.032491E3],"tree_param":{"num_deleted":"0","num_feature":"62","num_nodes":"15","size_leaf_vector":"1"}},{"base_weights":[-2.375507E-3,-2.2439724E-1,2.0505434E-1,-4.918712E-1,1.4174107E-1,3.3304423E-2,5.3640676E-1,-1.9087195E-2,-4.7823574E-2,9.830093E-3,1.2737338E-1,-4.7950028E-3,1.336229E-2,3.338129E-2,5.1613178E-2],"categories":[],"categories_nodes":[],"categories_segments":[],"categories_sizes":[],"default_left":[0,0,0,0,1,0,0,0,0,0,0,0,0,0,0],"id":17,"left_children":[1,3,5,7,9,11,13,-1,-1,-1,-1,-1,-1,-1,-1],"loss_changes":[6.8621466E2,7.04831E2,4.3837408E2,1.0044849E2,9.2152374E1,6.0807854E1,3.203351E1,0E0,0E0,0E0,0E0,0E0,0E0,0E0,0E0],"parents":[2147483647,0,0,1,1,2,2,3,3,4,4,5,5,6,6],"right_children":[2,4,6,8,10,12,14,-1,-1,-1,-1,-1,-1,-1,-1],"split_conditions":[1E0,1E0,1E0,1E0,1E0,8E0,2.876E1,-1.9087195E-2,-4.7823574E-2,9.830093E-3,1.2737338E-1,-4.7950028E-3,1.336229E-2,3.338129E-2,5.1613178E-2],"split_indices":[1,38,38,39,9,41,13,0,0,0,0,0,0,0,0],"split_type":[0,0,0,0,0,0,0,0,0,0,0,0,0,0,0],"sum_hessian":[1.4900228E4,7.197028E3,7.7031997E3,4.1589004E3,3.0381272E3,5.073515E3,2.6296846E3,1.1061237E3,3.0527769E3,2.9929436E3,4.5183544E1,2.973386E3,2.1001292E3,1.1242623E3,1.5054222E3],"tree_param":{"num_deleted":"0","num_feature":"62","num_nodes":"15","size_leaf_vector":"1"}},{"base_weights":[-6.5762787E-3,-2.213639E-1,1.92877E-1,-3.6363664E-1,-7.617102E-2,-3.4006055E-2,3.722811E-1,-5.7789516E-2,-4.424504E-3,-4.0544853E-2,1.2287336E-2,-4.3422848E-2,3.1323858E-2,-2.6913052E-2,4.816152E-2],"categories":[],"categories_nodes":[],"categories_segments":[],"categories_sizes":[],"default_left":[0,0,0,0,0,0,0,0,0,0,0,0,0,0,0],"id":18,"left_children":[1,3,5,7,9,11,13,-1,-1,-1,-1,-1,-1,-1,-1],"loss_changes":[6.351771E2,1.474595E2,3.1292654E2,3.8359857E2,3.36379E2,7.050714E2,6.5458887E2,0E0,0E0,0E0,0E0,0E0,0E0,0E0,0E0],"parents":[2147483647,0,0,1,1,2,2,3,3,4,4,5,5,6,6],"right_children":[2,4,6,8,10,12,14,-1,-1,-1,-1,-1,-1,-1,-1],"split_conditions":[1E0,1E0,1E0,5.8E1,5.6E1,5.8E1,4.8E1,-5.7789516E-2,-4.424504E-3,-4.0544853E-2,1.2287336E-2,-4.3422848E-2,3.1323858E-2,-2.6913052E-2,4.816152E-2],"split_indices":[1,16,16,0,0,0,0,0,0,0,0,0,0,0,0],"split_type":[0,0,0,0,0,0,0,0,0,0,0,0,0,0,0],"sum_hessian":[1.4826682E4,7.1389697E3,7.687712E3,3.6056633E3,3.5333062E3,3.3946045E3,4.2931074E3,1.7081094E3,1.897554E3,1.2379303E3,2.295376E3,1.5487516E3,1.8458529E3,1.0149856E3,3.2781216E3],"tree_param":{"num_deleted":"0","num_feature":"62","num_nodes":"15","size_leaf_vector":"1"}},{"base_weights":[3.0625213E-3,1.9662914E-1,-4.281435E-1,3.6349505E-1,-1.9147107E-2,-5.4260385E-1,3.716577E-1,1.2153039E-2,3.5233278E-2,2.108347E-3,-3.9267957E-2,-9.1882935E-3,-4.7521275E-2,3.2241847E-2,-5.91962E-2],"categories":[],"categories_nodes":[],"categories_segments":[],"categories_sizes":[],"default_left":[1,1,0,0,0,0,0,0,0,0,0,0,0,0,0],"id":19,"left_children":[1,3,5,7,9,11,13,-1,-1,-1,-1,-1,-1,-1,-1],"loss_changes":[1.2340012E3,3.674068E2,4.1932275E2,8.376715E1,9.233961E1,6.740881E1,1.4467651E1,0E0,0E0,0E0,0E0,0E0,0E0,0E0,0E0],"parents":[2147483647,0,0,1,1,2,2,3,3,4,4,5,5,6,6],"right_children":[2,4,6,8,10,12,14,-1,-1,-1,-1,-1,-1,-1,-1],"split_conditions":[4E0,3E0,1E0,1E0,1E0,6E0,1E0,1.2153039E-2,3.5233278E-2,2.108347E-3,-3.9267957E-2,-9.1882935E-3,-4.7521275E-2,3.2241847E-2,-5.91962E-2],"split_indices":[40,40,21,25,58,41,35,0,0,0,0,0,0,0,0],"split_type":[0,0,0,0,0,0,0,0,0,0,0,0,0,0,0],"sum_hessian":[1.4784346E4,1.0203907E4,4.580438E3,5.7541587E3,4.449749E3,4.0070188E3,5.734192E2,1.3810719E3,4.373087E3,4.0547532E3,3.949957E2,3.3410757E2,3.6729114E3,5.616446E2,1.1774576E1],"tree_param":{"num_deleted":"0","num_feature":"62","num_nodes":"15","size_leaf_vector":"1"}},{"base_weights":[-5.7366416E-3,-7.703342E-2,7.4942875E-1,-4.2622894E-1,2.324762E-1,1.068719E0,7.2327733E-1,-5.100727E-2,-3.8530808E-3,-3.177793E-3,3.828921E-2,1.09215006E-1,7.35444E-2,4.7056746E-2,6.94727E-2],"categories":[],"categories_nodes":[],"categories_segments":[],"categories_sizes":[],"default_left":[1,0,0,0,0,0,0,0,0,0,0,0,0,0,0],"id":20,"left_children":[1,3,5,7,9,11,13,-1,-1,-1,-1,-1,-1,-1,-1],"loss_changes":[7.859144E2,1.441571E3,1.0472351E1,4.7076892E2,4.5330844E2,4.2507477E0,2.1760193E1,0E0,0E0,0E0,0E0,0E0,0E0,0E0,0E0],"parents":[2147483647,0,0,1,1,2,2,3,3,4,4,5,5,6,6],"right_children":[2,4,6,8,10,12,14,-1,-1,-1,-1,-1,-1,-1,-1],"split_conditions":[1E0,5.8E1,4.3E1,8E0,1E0,2E0,1E0,-5.100727E-2,-3.8530808E-3,-3.177793E-3,3.828921E-2,1.09215006E-1,7.35444E-2,4.7056746E-2,6.94727E-2],"split_indices":[34,0,0,36,1,36,1,0,0,0,0,0,0,0,0],"split_type":[0,0,0,0,0,0,0,0,0,0,0,0,0,0,0],"sum_hessian":[1.4597274E4,1.3338033E4,1.2592407E3,6.2672544E3,7.0707793E3,9.525979E1,1.163981E3,4.115609E3,2.151645E3,3.2905925E3,3.7801865E3,3.668994E1,5.8569847E1,5.394934E2,6.2448755E2],"tree_param":{"num_deleted":"0","num_feature":"62","num_nodes":"15","size_leaf_vector":"1"}},{"base_weights":[6.461062E-3,1.8370111E-1,-3.9283204E-1,-5.8119035E-1,2.86111E-1,-6.6613346E-1,-9.5385285E-3,-5.3729963E-2,8.839188E-2,1.0672361E-2,4.4608973E-2,-5.660733E-2,5.2449673E-2,-3.2108523E-2,2.461423E-2],"categories":[],"categories_nodes":[],"categories_segments":[],"categories_sizes":[],"default_left":[1,0,0,1,0,0,0,0,0,0,0,0,0,0,0],"id":21,"left_children":[1,3,5,7,9,11,13,-1,-1,-1,-1,-1,-1,-1,-1],"loss_changes":[1.0315406E3,7.907551E2,4.69383E2,1.5172601E2,3.5980353E2,9.1763916E1,2.2235968E2,0E0,0E0,0E0,0E0,0E0,0E0,0E0,0E0],"parents":[2147483647,0,0,1,1,2,2,3,3,4,4,5,5,6,6],"right_children":[2,4,6,8,10,12,14,-1,-1,-1,-1,-1,-1,-1,-1],"split_conditions":[4E0,4.2E1,6.3E1,1E0,6.8E1,1E0,1E0,-5.3729963E-2,8.839188E-2,1.0672361E-2,4.4608973E-2,-5.660733E-2,5.2449673E-2,-3.2108523E-2,2.461423E-2],"split_indices":[40,0,0,34,0,34,1,0,0,0,0,0,0,0,0],"split_type":[0,0,0,0,0,0,0,0,0,0,0,0,0,0,0],"sum_hessian":[1.4575876E4,1.0094944E4,4.4809316E3,1.1919716E3,8.902973E3,2.6157507E3,1.865181E3,1.1395476E3,5.242388E1,5.5712534E3,3.331719E3,2.5632258E3,5.252475E1,8.350305E2,1.0301505E3],"tree_param":{"num_deleted":"0","num_feature":"62","num_nodes":"15","size_leaf_vector":"1"}},{"base_weights":[2.6218668E-3,-6.370836E-2,7.0339364E-1,-6.4810824E-1,8.955986E-2,1.2398009E0,6.753185E-1,1.09758094E-1,-5.4724254E-2,3.0644402E-2,-8.097625E-3,1.11139916E-1,7.3993534E-2,6.5636724E-2,5.2054077E-2],"categories":[],"categories_nodes":[],"categories_segments":[],"categories_sizes":[],"default_left":[1,0,0,0,1,0,0,0,0,0,0,0,0,0,0],"id":22,"left_children":[1,3,5,7,9,11,13,-1,-1,-1,-1,-1,-1,-1,-1],"loss_changes":[6.726024E2,1.1839961E3,1.879779E1,1.191814E2,5.642683E2,2.4535599E0,5.7731934E0,0E0,0E0,0E0,0E0,0E0,0E0,0E0,0E0],"parents":[2147483647,0,0,1,1,2,2,3,3,4,4,5,5,6,6],"right_children":[2,4,6,8,10,12,14,-1,-1,-1,-1,-1,-1,-1,-1],"split_conditions":[1E0,4.4E1,4E0,4E0,3E0,3.766E1,2E0,1.09758094E-1,-5.4724254E-2,3.0644402E-2,-8.097625E-3,1.11139916E-1,7.3993534E-2,6.5636724E-2,5.2054077E-2],"split_indices":[34,0,41,8,40,13,40,0,0,0,0,0,0,0,0],"split_type":[0,0,0,0,0,0,0,0,0,0,0,0,0,0,0],"sum_hessian":[1.4469742E4,1.3218535E4,1.2512073E3,2.7464978E3,1.0472037E4,6.2186787E1,1.1890205E3,2.9710585E1,2.716787E3,4.1664263E3,6.305611E3,4.562674E1,1.6560043E1,2.723633E2,9.1665717E2],"tree_param":{"num_deleted":"0","num_feature":"62","num_nodes":"15","size_leaf_vector":"1"}},{"base_weights":[-1.6877869E-3,-7.020163E-1,1.0716507E-1,1.8745786E-1,-7.394963E-1,2.4118035E-1,-2.3426838E-1,1.0390426E-2,4.6546556E-2,9.8666996E-2,-6.185325E-2,5.0042167E-2,1.4324599E-2,-2.7864523E-2,2.8047586E-2],"categories":[],"categories_nodes":[],"categories_segments":[],"categories_sizes":[],"default_left":[0,0,1,0,0,0,0,0,0,0,0,0,0,0,0],"id":23,"left_children":[1,3,5,7,9,11,13,-1,-1,-1,-1,-1,-1,-1,-1],"loss_changes":[1.0887694E3,6.406323E1,5.6559326E2,1.7732458E0,6.342932E1,2.1700427E2,2.1499008E2,0E0,0E0,0E0,0E0,0E0,0E0,0E0,0E0],"parents":[2147483647,0,0,1,1,2,2,3,3,4,4,5,5,6,6],"right_children":[2,4,6,8,10,12,14,-1,-1,-1,-1,-1,-1,-1,-1],"split_conditions":[4E1,2E0,4E0,1E0,1E0,2E0,1E0,1.0390426E-2,4.6546556E-2,9.8666996E-2,-6.185325E-2,5.0042167E-2,1.4324599E-2,-2.7864523E-2,2.8047586E-2],"split_indices":[0,40,40,35,4,40,21,0,0,0,0,0,0,0,0],"split_type":[0,0,0,0,0,0,0,0,0,0,0,0,0,0,0],"sum_hessian":[1.4281989E4,1.9212722E3,1.2360717E4,7.765865E1,1.8436135E3,8.876636E3,3.4840808E3,6.713791E1,1.0520743E1,1.6566626E1,1.8270469E3,1.3363827E3,7.5402534E3,2.9403018E3,5.4377905E2],"tree_param":{"num_deleted":"0","num_feature":"62","num_nodes":"15","size_leaf_vector":"1"}},{"base_weights":[2.1826779E-3,-5.7423346E-2,6.453294E-1,-2.982184E-1,2.6347667E-1,1.1223916E0,6.2382126E-1,9.564811E-3,-3.459822E-2,-1.8131403E-2,2.4393009E-2,1.0378475E-1,6.672021E-2,5.023539E-2,8.3440416E-2],"categories":[],"categories_nodes":[],"categories_segments":[],"categories_sizes":[],"default_left":[1,0,0,1,0,0,0,0,0,0,0,0,0,0,0],"id":24,"left_children":[1,3,5,7,9,11,13,-1,-1,-1,-1,-1,-1,-1,-1],"loss_changes":[5.424412E2,1.00061194E3,1.2273529E1,3.8501794E2,9.465878E1,2.2917633E0,4.01297E0,0E0,0E0,0E0,0E0,0E0,0E0,0E0,0E0],"parents":[2147483647,0,0,1,1,2,2,3,3,4,4,5,5,6,6],"right_children":[2,4,6,8,10,12,14,-1,-1,-1,-1,-1,-1,-1,-1],"split_conditions":[1E0,6.3E1,4E0,5E0,1.949E1,3.636E1,5.538E1,9.564811E-3,-3.459822E-2,-1.8131403E-2,2.4393009E-2,1.0378475E-1,6.672021E-2,5.023539E-2,8.3440416E-2],"split_indices":[34,0,41,41,13,13,13,0,0,0,0,0,0,0,0],"split_type":[0,0,0,0,0,0,0,0,0,0,0,0,0,0,0],"sum_hessian":[1.4149514E4,1.294935E4,1.2001641E3,7.3980884E3,5.5512617E3,5.1725906E1,1.1484382E3,1.714776E3,5.6833125E3,3.745477E2,5.176714E3,3.479174E1,1.6934168E1,1.1234292E3,2.5008966E1],"tree_param":{"num_deleted":"0","num_feature":"62","num_nodes":"15","size_leaf_vector":"1"}},{"base_weights":[2.70058E-3,-2.8415513E-1,2.3264155E-1,-3.8937074E-1,1.09399624E-1,1.5766533E-1,6.1807615E-1,-4.7800317E-2,-1.6487481E-2,-6.7995447E-3,5.0095472E-2,-2.6420152E-3,2.5598107E-2,4.8772864E-2,1.04810394E-1],"categories":[],"categories_nodes":[],"categories_segments":[],"categories_sizes":[],"default_left":[0,0,0,0,0,0,1,0,0,0,0,0,0,0,0],"id":25,"left_children":[1,3,5,7,9,11,13,-1,-1,-1,-1,-1,-1,-1,-1],"loss_changes":[9.2668835E2,2.5884756E2,2.2534097E2,1.8107373E2,1.2799088E2,1.9313194E2,1.7714172E1,0E0,0E0,0E0,0E0,0E0,0E0,0E0,0E0],"parents":[2147483647,0,0,1,1,2,2,3,3,4,4,5,5,6,6],"right_children":[2,4,6,8,10,12,14,-1,-1,-1,-1,-1,-1,-1,-1],"split_conditions":[5.8E1,1E0,1E0,1E0,1E0,1E0,1E0,-4.7800317E-2,-1.6487481E-2,-6.7995447E-3,5.0095472E-2,-2.6420152E-3,2.5598107E-2,4.8772864E-2,1.04810394E-1],"split_indices":[0,43,43,16,22,16,22,0,0,0,0,0,0,0,0],"split_type":[0,0,0,0,0,0,0,0,0,0,0,0,0,0,0],"sum_hessian":[1.4049288E4,6.250976E3,7.7983115E3,4.932379E3,1.318597E3,6.5284365E3,1.2698752E3,2.4131938E3,2.5191853E3,9.5385736E2,3.647397E2,2.9401135E3,3.588323E3,1.2309788E3,3.889652E1],"tree_param":{"num_deleted":"0","num_feature":"62","num_nodes":"15","size_leaf_vector":"1"}},{"base_weights":[-7.0717596E-3,2.5305212E-1,-1.7240824E-1,1.0470033E-1,4.1512677E-1,-4.1020274E-1,2.9485803E-2,-2.6761366E-2,1.4297965E-2,-2.458541E-2,3.867447E-2,-2.0689648E-2,-4.674664E-2,8.030518E-3,-2.5395148E-2],"categories":[],"categories_nodes":[],"categories_segments":[],"categories_sizes":[],"default_left":[1,0,0,0,0,0,0,0,0,0,0,0,0,0,0],"id":26,"left_children":[1,3,5,7,9,11,13,-1,-1,-1,-1,-1,-1,-1,-1],"loss_changes":[5.9685156E2,1.2965573E2,4.07359E2,8.5599396E1,1.07597015E2,9.905542E1,1.0747664E2,0E0,0E0,0E0,0E0,0E0,0E0,0E0,0E0],"parents":[2147483647,0,0,1,1,2,2,3,3,4,4,5,5,6,6],"right_children":[2,4,6,8,10,12,14,-1,-1,-1,-1,-1,-1,-1,-1],"split_conditions":[3E0,1E0,1E0,1.365E2,1.245E2,4E0,5E0,-2.6761366E-2,1.4297965E-2,-2.458541E-2,3.867447E-2,-2.0689648E-2,-4.674664E-2,8.030518E-3,-2.5395148E-2],"split_indices":[40,1,1,2,2,40,40,0,0,0,0,0,0,0,0],"split_type":[0,0,0,0,0,0,0,0,0,0,0,0,0,0,0],"sum_hessian":[1.3877739E4,5.39292E3,8.48482E3,2.815736E3,2.5771836E3,3.89607E3,4.58875E3,3.939267E2,2.4218096E3,1.9399655E2,2.383187E3,1.9792869E3,1.9167832E3,3.8170322E3,7.717177E2],"tree_param":{"num_deleted":"0","num_feature":"62","num_nodes":"15","size_leaf_vector":"1"}},{"base_weights":[-9.638958E-3,-5.0442994E-1,1.05355605E-1,-5.5381626E-1,8.26498E-1,-4.0229753E-2,3.2142544E-1,9.7855955E-2,-4.6594527E-2,5.586091E-2,8.072097E-2,-1.7315147E-2,9.912588E-3,7.7846823E-3,4.273395E-2],"categories":[],"categories_nodes":[],"categories_segments":[],"categories_sizes":[],"default_left":[0,1,0,0,0,0,0,0,0,0,0,0,0,0,0],"id":27,"left_children":[1,3,5,7,9,11,13,-1,-1,-1,-1,-1,-1,-1,-1],"loss_changes":[7.8519855E2,1.71052E2,3.5223978E2,7.279242E1,2.1077766E0,1.8562495E2,2.0557614E2,0E0,0E0,0E0,0E0,0E0,0E0,0E0,0E0],"parents":[2147483647,0,0,1,1,2,2,3,3,4,4,5,5,6,6],"right_children":[2,4,6,8,10,12,14,-1,-1,-1,-1,-1,-1,-1,-1],"split_conditions":[4.4E1,1E0,6.8E1,2E0,1E0,1E0,1E0,9.7855955E-2,-4.6594527E-2,5.586091E-2,8.072097E-2,-1.7315147E-2,9.912588E-3,7.7846823E-3,4.273395E-2],"split_indices":[0,34,0,5,1,1,1,0,0,0,0,0,0,0,0],"split_type":[0,0,0,0,0,0,0,0,0,0,0,0,0,0,0],"sum_hessian":[1.3799879E4,2.6024456E3,1.1197434E4,2.5093499E3,9.309565E1,6.6898105E3,4.5076226E3,2.3491114E1,2.4858586E3,4.95252E1,4.357045E1,3.243035E3,3.4467756E3,2.1251409E3,2.3824817E3],"tree_param":{"num_deleted":"0","num_feature":"62","num_nodes":"15","size_leaf_vector":"1"}},{"base_weights":[-9.302892E-3,-2.835124E-2,4.5348433E-1,-8.5770726E-2,5.759309E-1,2.9840732E-1,1.0075905E0,-2.0921558E-2,2.1708855E-2,1.2588124E-1,4.6286914E-2,-6.113599E-2,2.7733253E-2,8.713536E-2,1.8725649E-2],"categories":[],"categories_nodes":[],"categories_segments":[],"categories_sizes":[],"default_left":[1,1,0,0,0,0,0,0,0,0,0,0,0,0,0],"id":28,"left_children":[1,3,5,7,9,11,13,-1,-1,-1,-1,-1,-1,-1,-1],"loss_changes":[1.2047445E2,4.5547443E2,4.6394585E1,7.178099E2,1.0192078E1,1.8147057E1,5.399582E0,0E0,0E0,0E0,0E0,0E0,0E0,0E0,0E0],"parents":[2147483647,0,0,1,1,2,2,3,3,4,4,5,5,6,6],"right_children":[2,4,6,8,10,12,14,-1,-1,-1,-1,-1,-1,-1,-1],"split_conditions":[1E0,1E0,1.77E2,6.9E1,2.7E1,4.1E1,1E2,-2.0921558E-2,2.1708855E-2,1.2588124E-1,4.6286914E-2,-6.113599E-2,2.7733253E-2,8.713536E-2,1.8725649E-2],"split_indices":[20,34,2,0,0,0,14,0,0,0,0,0,0,0,0],"split_type":[0,0,0,0,0,0,0,0,0,0,0,0,0,0,0],"sum_hessian":[1.3667576E4,1.3127307E4,5.402698E2,1.1988214E4,1.1390929E3,4.2216293E2,1.1810686E2,8.075208E3,3.913006E3,1.086687E1,1.128226E3,1.5921508E1,4.0624142E2,1.0974895E2,8.357914E0],"tree_param":{"num_deleted":"0","num_feature":"62","num_nodes":"15","size_leaf_vector":"1"}},{"base_weights":[3.0652506E-3,1.2953767E-1,-2.885814E-1,-4.6731842E-1,1.96706E-1,-6.315332E-1,-8.587597E-2,-4.5848623E-2,7.111067E-3,6.635742E-3,3.285126E-2,-5.6183293E-2,-2.4320351E-2,-1.555666E-2,3.142571E-2],"categories":[],"categories_nodes":[],"categories_segments":[],"categories_sizes":[],"default_left":[1,0,0,0,0,0,0,0,0,0,0,0,0,0,0],"id":29,"left_children":[1,3,5,7,9,11,13,-1,-1,-1,-1,-1,-1,-1,-1],"loss_changes":[5.048545E2,3.8273947E2,2.8779294E2,5.029666E1,2.0356808E2,2.8843079E1,1.2802484E2,0E0,0E0,0E0,0E0,0E0,0E0,0E0,0E0],"parents":[2147483647,0,0,1,1,2,2,3,3,4,4,5,5,6,6],"right_children":[2,4,6,8,10,12,14,-1,-1,-1,-1,-1,-1,-1,-1],"split_conditions":[4E0,4E1,5.3E1,5E-1,6.8E1,1E0,1E0,-4.5848623E-2,7.111067E-3,6.635742E-3,3.285126E-2,-5.6183293E-2,-2.4320351E-2,-1.555666E-2,3.142571E-2],"split_indices":[40,0,0,21,0,58,21,0,0,0,0,0,0,0,0],"split_type":[0,0,0,0,0,0,0,0,0,0,0,0,0,0,0],"sum_hessian":[1.368726E4,9.5472E3,4.1400586E3,9.6569635E2,8.581504E3,1.5379414E3,2.6021174E3,8.258145E2,1.3988182E2,5.493656E3,3.0878484E3,1.3161844E3,2.21757E2,2.1290918E3,4.730256E2],"tree_param":{"num_deleted":"0","num_feature":"62","num_nodes":"15","size_leaf_vector":"1"}},{"base_weights":[-1.1963653E-3,2.4858345E-1,-1.617029E-1,5.1373905E-1,1.6239434E-1,-1.01800844E-1,-4.8418432E-1,6.5784484E-2,3.5751726E-2,8.9661614E-4,2.655818E-2,-2.4964705E-2,6.2654587E-3,-6.0912028E-2,-2.3473747E-2],"categories":[],"categories_nodes":[],"categories_segments":[],"categories_sizes":[],"default_left":[1,0,0,0,0,0,0,0,0,0,0,0,0,0,0],"id":30,"left_children":[1,3,5,7,9,11,13,-1,-1,-1,-1,-1,-1,-1,-1],"loss_changes":[5.437025E2,1.21230194E2,1.5947609E2,2.884137E1,9.8640854E1,2.5330557E2,6.6536224E1,0E0,0E0,0E0,0E0,0E0,0E0,0E0,0E0],"parents":[2147483647,0,0,1,1,2,2,3,3,4,4,5,5,6,6],"right_children":[2,4,6,8,10,12,14,-1,-1,-1,-1,-1,-1,-1,-1],"split_conditions":[3E0,2E0,5E0,5E0,1E0,1E0,1E0,6.5784484E-2,3.5751726E-2,8.9661614E-4,2.655818E-2,-2.4964705E-2,6.2654587E-3,-6.0912028E-2,-2.3473747E-2],"split_indices":[40,40,40,41,1,1,1,0,0,0,0,0,0,0,0],"split_type":[0,0,0,0,0,0,0,0,0,0,0,0,0,0,0],"sum_hessian":[1.3561658E4,5.305347E3,8.256311E3,1.3013989E3,4.0039482E3,6.9629854E3,1.2933258E3,2.6928284E2,1.032116E3,2.0740305E3,1.9299178E3,3.2511323E3,3.7118528E3,5.554221E2,7.379037E2],"tree_param":{"num_deleted":"0","num_feature":"62","num_nodes":"15","size_leaf_vector":"1"}},{"base_weights":[-8.1206433E-4,1.1893216E-1,-2.8399992E-1,8.1636995E-2,4.0941396E-1,-3.6114317E-1,-1.8148785E-2,2.6764853E-3,4.5956444E-2,6.55261E-2,3.0436065E-2,-1.946076E-2,-4.910992E-2,-5.6935907E-3,3.348608E-2],"categories":[],"categories_nodes":[],"categories_segments":[],"categories_sizes":[],"default_left":[1,1,0,1,0,0,0,0,0,0,0,0,0,0,0],"id":31,"left_children":[1,3,5,7,9,11,13,-1,-1,-1,-1,-1,-1,-1,-1],"loss_changes":[4.6054037E2,1.0339484E2,8.276642E1,1.9881242E2,1.568219E1,9.2276184E1,2.0024485E1,0E0,0E0,0E0,0E0,0E0,0E0,0E0,0E0],"parents":[2147483647,0,0,1,1,2,2,3,3,4,4,5,5,6,6],"right_children":[2,4,6,8,10,12,14,-1,-1,-1,-1,-1,-1,-1,-1],"split_conditions":[4E0,1E0,3.389E1,1E0,5E0,5E0,1E0,2.6764853E-3,4.5956444E-2,6.55261E-2,3.0436065E-2,-1.946076E-2,-4.910992E-2,-5.6935907E-3,3.348608E-2],"split_indices":[40,44,13,34,41,40,44,0,0,0,0,0,0,0,0],"split_type":[0,0,0,0,0,0,0,0,0,0,0,0,0,0,0],"sum_hessian":[1.3581096E4,9.5449795E3,4.036116E3,8.459003E3,1.0859767E3,3.1282812E3,9.078349E2,7.678725E3,7.802782E2,9.3071495E1,9.9290515E2,2.068903E3,1.0593779E3,8.1031024E2,9.752469E1],"tree_param":{"num_deleted":"0","num_feature":"62","num_nodes":"15","size_leaf_vector":"1"}},{"base_weights":[8.36942E-3,-2.1693279E-1,1.8424146E-1,-3.198862E-1,1.8751961E-1,1.1861213E-1,5.293146E-1,-4.649386E-2,-1.6541976E-2,9.133222E-2,1.337401E-2,3.2704398E-3,3.407853E-2,2.8912885E-2,5.123409E-2],"categories":[],"categories_nodes":[],"categories_segments":[],"categories_sizes":[],"default_left":[0,0,0,0,0,0,0,0,0,0,0,0,0,0,0],"id":32,"left_children":[1,3,5,7,9,11,13,-1,-1,-1,-1,-1,-1,-1,-1],"loss_changes":[5.3201483E2,2.4509546E2,1.7075313E2,1.3726736E2,2.642218E1,1.4862003E2,2.0656464E1,0E0,0E0,0E0,0E0,0E0,0E0,0E0,0E0],"parents":[2147483647,0,0,1,1,2,2,3,3,4,4,5,5,6,6],"right_children":[2,4,6,8,10,12,14,-1,-1,-1,-1,-1,-1,-1,-1],"split_conditions":[5.8E1,5E-1,1E0,4E1,2.59E2,8.2E1,6.5E1,-4.649386E-2,-1.6541976E-2,9.133222E-2,1.337401E-2,3.2704398E-3,3.407853E-2,2.8912885E-2,5.123409E-2],"split_indices":[0,21,43,0,3,0,0,0,0,0,0,0,0,0,0],"split_type":[0,0,0,0,0,0,0,0,0,0,0,0,0,0,0],"sum_hessian":[1.3426475E4,5.886017E3,7.5404575E3,4.691781E3,1.1942362E3,6.335567E3,1.204891E3,1.5020968E3,3.189684E3,2.9762814E1,1.1644734E3,5.0155796E3,1.3199873E3,4.3160898E2,7.73282E2],"tree_param":{"num_deleted":"0","num_feature":"62","num_nodes":"15","size_leaf_vector":"1"}},{"base_weights":[3.781236E-3,-4.6951383E-1,7.005129E-2,-5.1306427E-1,8.164697E-1,-1.0287569E-1,2.3221342E-1,1.1722141E-1,-4.3758366E-2,1.0633825E-1,4.5720268E-2,-1.288495E-2,3.5417724E-2,1.6027568E-2,4.9927346E-2],"categories":[],"categories_nodes":[],"categories_segments":[],"categories_sizes":[],"default_left":[0,1,0,0,0,1,1,0,0,0,0,0,0,0,0],"id":33,"left_children":[1,3,5,7,9,11,13,-1,-1,-1,-1,-1,-1,-1,-1],"loss_changes":[4.2008194E2,9.2119934E1,3.29458E2,7.0018524E1,6.6684456E0,1.6729115E2,8.273105E1,0E0,0E0,0E0,0E0,0E0,0E0,0E0,0E0],"parents":[2147483647,0,0,1,1,2,2,3,3,4,4,5,5,6,6],"right_children":[2,4,6,8,10,12,14,-1,-1,-1,-1,-1,-1,-1,-1],"split_conditions":[4E1,1E0,1E0,4.00001E0,2.296E1,1E0,1E0,1.1722141E-1,-4.3758366E-2,1.0633825E-1,4.5720268E-2,-1.288495E-2,3.5417724E-2,1.6027568E-2,4.9927346E-2],"split_indices":[0,34,1,9,13,43,34,0,0,0,0,0,0,0,0],"split_type":[0,0,0,0,0,0,0,0,0,0,0,0,0,0,0],"sum_hessian":[1.3393502E4,1.6449629E3,1.1748539E4,1.5910981E3,5.3864666E1,5.6854883E3,6.063051E3,1.823248E1,1.5728657E3,1.860774E1,3.5256927E1,5.1580903E3,5.273978E2,5.536918E3,5.2613293E2],"tree_param":{"num_deleted":"0","num_feature":"62","num_nodes":"15","size_leaf_vector":"1"}},{"base_weights":[1.2683757E-2,2.154181E-1,-1.17317036E-1,2.0267841E-1,1.108681E0,-1.5786958E-1,4.9060935E-1,3.85047E-2,9.368742E-3,3.2174893E-2,9.994623E-2,-1.6736023E-2,1.2502837E-2,6.143407E-2,2.649829E-2],"categories":[],"categories_nodes":[],"categories_segments":[],"categories_sizes":[],"default_left":[1,1,0,0,1,0,0,0,0,0,0,0,0,0,0],"id":34,"left_children":[1,3,5,7,9,11,13,-1,-1,-1,-1,-1,-1,-1,-1],"loss_changes":[3.5187646E2,5.933104E1,2.0053572E2,1.21572876E2,5.9789352E0,1.1144627E2,2.208049E1,0E0,0E0,0E0,0E0,0E0,0E0,0E0,0E0],"parents":[2147483647,0,0,1,1,2,2,3,3,4,4,5,5,6,6],"right_children":[2,4,6,8,10,12,14,-1,-1,-1,-1,-1,-1,-1,-1],"split_conditions":[3E0,1E0,1E0,2E0,1E0,1E0,7E0,3.85047E-2,9.368742E-3,3.2174893E-2,9.994623E-2,-1.6736023E-2,1.2502837E-2,6.143407E-2,2.649829E-2],"split_indices":[40,26,34,40,9,44,41,0,0,0,0,0,0,0,0],"split_type":[0,0,0,0,0,0,0,0,0,0,0,0,0,0,0],"sum_hessian":[1.3351008E4,5.216355E3,8.134653E3,5.143032E3,7.3322556E1,7.6259897E3,5.0866306E2,1.2687726E3,3.8742598E3,1.0174258E1,6.3148293E1,6.624623E3,1.00136664E3,1.976654E2,3.1099765E2],"tree_param":{"num_deleted":"0","num_feature":"62","num_nodes":"15","size_leaf_vector":"1"}},{"base_weights":[-6.301896E-3,-1.1774737E-1,2.784207E-1,-5.2312285E-1,-4.6978455E-2,2.1206778E-1,5.938685E-1,-4.4404432E-2,8.877692E-2,4.6604653E-3,-2.1405617E-2,7.819131E-3,3.0689893E-2,-6.648779E-2,5.0147105E-2],"categories":[],"categories_nodes":[],"categories_segments":[],"categories_sizes":[],"default_left":[0,0,0,1,1,0,0,0,0,0,0,0,0,0,0],"id":35,"left_children":[1,3,5,7,9,11,13,-1,-1,-1,-1,-1,-1,-1,-1],"loss_changes":[4.212546E2,2.7370856E2,7.814905E1,4.666681E1,1.8173776E2,5.8730026E1,1.8267227E1,0E0,0E0,0E0,0E0,0E0,0E0,0E0,0E0],"parents":[2147483647,0,0,1,1,2,2,3,3,4,4,5,5,6,6],"right_children":[2,4,6,8,10,12,14,-1,-1,-1,-1,-1,-1,-1,-1],"split_conditions":[5E-1,4E1,1E0,1E0,4E0,6.8E1,4.2E1,-4.4404432E-2,8.877692E-2,4.6604653E-3,-2.1405617E-2,7.819131E-3,3.0689893E-2,-6.648779E-2,5.0147105E-2],"split_indices":[21,0,43,30,40,0,0,0,0,0,0,0,0,0,0],"split_type":[0,0,0,0,0,0,0,0,0,0,0,0,0,0,0],"sum_hessian":[1.3275904E4,9.541337E3,3.7345671E3,1.4180708E3,8.123266E3,3.085601E3,6.48966E2,1.4003007E3,1.7770126E1,5.4748193E3,2.6484468E3,1.8033517E3,1.2822494E3,9.073545E0,6.3989246E2],"tree_param":{"num_deleted":"0","num_feature":"62","num_nodes":"15","size_leaf_vector":"1"}},{"base_weights":[5.3378018E-3,-8.858025E-2,2.9322502E-1,7.540273E-3,-2.7482355E-1,5.972041E-1,2.208645E-1,-1.7297379E-3,4.3587208E-2,-1.754237E-2,-3.243862E-2,4.6981514E-2,1.0447891E-1,1.3125761E-2,4.497689E-2],"categories":[],"categories_nodes":[],"categories_segments":[],"categories_sizes":[],"default_left":[0,1,1,1,0,1,0,0,0,0,0,0,0,0,0],"id":36,"left_children":[1,3,5,7,9,11,13,-1,-1,-1,-1,-1,-1,-1,-1],"loss_changes":[3.5596017E2,1.7771082E2,7.121457E1,9.8907585E1,2.4809982E1,9.331863E0,5.1894173E1,0E0,0E0,0E0,0E0,0E0,0E0,0E0,0E0],"parents":[2147483647,0,0,1,1,2,2,3,3,4,4,5,5,6,6],"right_children":[2,4,6,8,10,12,14,-1,-1,-1,-1,-1,-1,-1,-1],"split_conditions":[1E0,4E0,2E0,1.5E2,5E0,2.5E2,1E0,-1.7297379E-3,4.3587208E-2,-1.754237E-2,-3.243862E-2,4.6981514E-2,1.0447891E-1,1.3125761E-2,4.497689E-2],"split_indices":[21,40,40,2,40,15,43,0,0,0,0,0,0,0,0],"split_type":[0,0,0,0,0,0,0,0,0,0,0,0,0,0,0],"sum_hessian":[1.3165099E4,9.926633E3,3.2384658E3,6.54739E3,3.3792432E3,6.226115E2,2.6158542E3,6.208442E3,3.3894797E2,2.2659653E3,1.1132778E3,6.0310815E2,1.9503345E1,2.2121147E3,4.0373972E2],"tree_param":{"num_deleted":"0","num_feature":"62","num_nodes":"15","size_leaf_vector":"1"}},{"base_weights":[-6.7977374E-3,-4.5711983E-2,4.4778067E-1,-1.979441E-1,9.710502E-2,4.6808434E-1,-5.3108907E-1,-2.0604602E-3,-2.5885638E-2,-7.1270335E-3,1.975022E-2,5.0401673E-2,3.4054317E-2,-9.821815E-2,4.0456325E-2],"categories":[],"categories_nodes":[],"categories_segments":[],"categories_sizes":[],"default_left":[1,0,0,1,0,0,0,0,0,0,0,0,0,0,0],"id":37,"left_children":[1,3,5,7,9,11,13,-1,-1,-1,-1,-1,-1,-1,-1],"loss_changes":[2.3149992E2,2.6210223E2,2.0508484E1,1.19862564E2,1.6588208E2,7.6855164E0,1.4447607E1,0E0,0E0,0E0,0E0,0E0,0E0,0E0,0E0],"parents":[2147483647,0,0,1,1,2,2,3,3,4,4,5,5,6,6],"right_children":[2,4,6,8,10,12,14,-1,-1,-1,-1,-1,-1,-1,-1],"split_conditions":[1E0,1E0,5E0,3E0,1E0,2E0,2E0,-2.0604602E-3,-2.5885638E-2,-7.1270335E-3,1.975022E-2,5.0401673E-2,3.4054317E-2,-9.821815E-2,4.0456325E-2],"split_indices":[43,1,40,40,16,40,36,0,0,0,0,0,0,0,0],"split_type":[0,0,0,0,0,0,0,0,0,0,0,0,0,0,0],"sum_hessian":[1.3087321E4,1.2055371E4,1.0319498E3,5.835418E3,6.219953E3,1.01100385E3,2.094603E1,2.3796643E3,3.4557534E3,2.7347844E3,3.4851687E3,2.5862155E2,7.523823E2,1.2677217E1,8.268812E0],"tree_param":{"num_deleted":"0","num_feature":"62","num_nodes":"15","size_leaf_vector":"1"}},{"base_weights":[-9.331839E-3,-1.4743918E-1,1.1232906E-1,-2.733241E-1,6.1399597E-3,2.2347547E-2,2.1595834E-1,-3.7199117E-2,-9.66943E-3,-1.9035449E-3,8.613721E-2,-1.1295251E-2,1.1440961E-2,5.0126277E-3,3.0472282E-2],"categories":[],"categories_nodes":[],"categories_segments":[],"categories_sizes":[],"default_left":[0,0,0,0,1,0,0,0,0,0,0,0,0,0,0],"id":38,"left_children":[1,3,5,7,9,11,13,-1,-1,-1,-1,-1,-1,-1,-1],"loss_changes":[2.1874461E2,1.1788754E2,6.453451E1,9.451077E1,8.479015E1,7.004004E1,7.809454E1,0E0,0E0,0E0,0E0,0E0,0E0,0E0,0E0],"parents":[2147483647,0,0,1,1,2,2,3,3,4,4,5,5,6,6],"right_children":[2,4,6,8,10,12,14,-1,-1,-1,-1,-1,-1,-1,-1],"split_conditions":[1E0,2E0,3E0,1E0,1E0,1E0,1E0,-3.7199117E-2,-9.66943E-3,-1.9035449E-3,8.613721E-2,-1.1295251E-2,1.1440961E-2,5.0126277E-3,3.0472282E-2],"split_indices":[16,36,36,1,22,1,1,0,0,0,0,0,0,0,0],"split_type":[0,0,0,0,0,0,0,0,0,0,0,0,0,0,0],"sum_hessian":[1.3018709E4,6.0973228E3,6.9213857E3,3.3508586E3,2.746464E3,3.7047595E3,3.2166265E3,1.5407006E3,1.8101581E3,2.6714153E3,7.504892E1,1.5666985E3,2.138061E3,1.6211147E3,1.5955116E3],"tree_param":{"num_deleted":"0","num_feature":"62","num_nodes":"15","size_leaf_vector":"1"}},{"base_weights":[3.496783E-3,1.2634219E0,-1.8651524E-3,1.0924887E-1,7.6225795E-2,-9.431329E-2,2.3452395E-1,-8.980691E-3,5.017963E-2,2.2184385E-2,-5.079556E-3],"categories":[],"categories_nodes":[],"categories_segments":[],"categories_sizes":[],"default_left":[0,1,0,0,0,1,0,0,0,0,0],"id":39,"left_children":[1,3,5,-1,-1,7,9,-1,-1,-1,-1],"loss_changes":[8.7923935E1,1.2931213E0,2.831216E2,0E0,0E0,1.0308371E2,4.003502E1,0E0,0E0,0E0,0E0],"parents":[2147483647,0,0,1,1,2,2,5,5,6,6],"right_children":[2,4,6,-1,-1,8,10,-1,-1,-1,-1],"split_conditions":[3E0,1E0,5E-1,1.0924887E-1,7.6225795E-2,6.8E1,4.618E1,-8.980691E-3,5.017963E-2,2.2184385E-2,-5.079556E-3],"split_indices":[11,10,21,0,0,32,13,0,0,0,0],"split_type":[0,0,0,0,0,0,0,0,0,0,0],"sum_hessian":[1.3010595E4,5.5152367E1,1.2955442E4,4.5005924E1,1.0146444E1,9.313266E3,3.6421768E3,9.112394E3,2.0087215E2,3.238E3,4.0417682E2],"tree_param":{"num_deleted":"0","num_feature":"62","num_nodes":"11","size_leaf_vector":"1"}},{"base_weights":[1.1526E-2,3.4349692E-1,-8.934097E-3,2.591233E-1,7.814149E-1,-4.2650063E-2,4.1274366E-1,5.2531052E-2,7.6898267E-3,8.24437E-2,5.213912E-2,8.295394E-3,-1.0288496E-2,2.582896E-2,4.147297E-2],"categories":[],"categories_nodes":[],"categories_segments":[],"categories_sizes":[],"default_left":[0,0,1,0,0,1,0,0,0,0,0,0,0,0,0],"id":40,"left_children":[1,3,5,7,9,11,13,-1,-1,-1,-1,-1,-1,-1,-1],"loss_changes":[8.838711E1,2.7889267E1,1.7424567E2,4.010941E1,3.94001E0,1.363134E2,8.29953E0,0E0,0E0,0E0,0E0,0E0,0E0,0E0,0E0],"parents":[2147483647,0,0,1,1,2,2,3,3,4,4,5,5,6,6],"right_children":[2,4,6,8,10,12,14,-1,-1,-1,-1,-1,-1,-1,-1],"split_conditions":[5E0,1E0,1E0,2E0,4E0,3E0,8E0,5.2531052E-2,7.6898267E-3,8.24437E-2,5.213912E-2,8.295394E-3,-1.0288496E-2,2.582896E-2,4.147297E-2],"split_indices":[41,34,34,40,41,40,41,0,0,0,0,0,0,0,0],"split_type":[0,0,0,0,0,0,0,0,0,0,0,0,0,0,0],"sum_hessian":[1.3011976E4,7.5546405E2,1.2256512E4,6.3346826E2,1.21995804E2,1.1349129E4,9.073833E2,1.903604E2,4.4310785E2,4.7015156E1,7.4980644E1,4.155323E3,7.193805E3,4.4997336E2,4.5740997E2],"tree_param":{"num_deleted":"0","num_feature":"62","num_nodes":"15","size_leaf_vector":"1"}},{"base_weights":[5.784314E-4,-7.2177865E-2,1.16661526E-1,8.411806E-3,-9.867131E-2,-2.5656328E-1,1.6328506E-1,-3.355665E-3,2.100069E-2,-7.0265224E-3,-2.424508E-2,7.982315E-2,-2.6257426E-2,1.1788957E-2,5.99479E-2],"categories":[],"categories_nodes":[],"categories_segments":[],"categories_sizes":[],"default_left":[0,0,0,0,0,0,1,0,0,0,0,0,0,0,0],"id":41,"left_children":[1,3,5,7,9,11,13,-1,-1,-1,-1,-1,-1,-1,-1],"loss_changes":[1.0913622E2,1.6961567E1,8.663213E1,2.418707E1,1.4982418E1,4.4222828E1,4.7888893E1,0E0,0E0,0E0,0E0,0E0,0E0,0E0,0E0],"parents":[2147483647,0,0,1,1,2,2,3,3,4,4,5,5,6,6],"right_children":[2,4,6,8,10,12,14,-1,-1,-1,-1,-1,-1,-1,-1],"split_conditions":[1E0,1E0,4.7E1,1E0,1E0,2.02E2,7.6E1,-3.355665E-3,2.100069E-2,-7.0265224E-3,-2.424508E-2,7.982315E-2,-2.6257426E-2,1.1788957E-2,5.99479E-2],"split_indices":[38,39,32,42,35,6,32,0,0,0,0,0,0,0,0],"split_type":[0,0,0,0,0,0,0,0,0,0,0,0,0,0,0],"sum_hessian":[1.2921864E4,7.943189E3,4.9786753E3,1.9650098E3,5.978179E3,5.52819E2,4.425856E3,1.638768E3,3.262418E2,5.6193E3,3.5887903E2,2.7594471E1,5.252245E2,4.2834624E3,1.4239352E2],"tree_param":{"num_deleted":"0","num_feature":"62","num_nodes":"15","size_leaf_vector":"1"}},{"base_weights":[-1.9020879E-3,-1.5106845E-1,1.8160099E-1,-2.5933644E-1,4.816974E-2,2.3313265E-2,3.260974E-1,-3.3139512E-2,-1.0258812E-2,-1.0300742E-2,1.4846663E-2,-3.3332335E-3,3.239432E-2,1.8232474E-2,3.335058E-2],"categories":[],"categories_nodes":[],"categories_segments":[],"categories_sizes":[],"default_left":[0,0,0,0,0,0,0,0,0,0,0,0,0,0,0],"id":42,"left_children":[1,3,5,7,9,11,13,-1,-1,-1,-1,-1,-1,-1,-1],"loss_changes":[3.5245895E2,1.5322032E2,1.3204617E2,9.006497E1,5.821059E1,6.59466E1,2.550354E1,0E0,0E0,0E0,0E0,0E0,0E0,0E0,0E0],"parents":[2147483647,0,0,1,1,2,2,3,3,4,4,5,5,6,6],"right_children":[2,4,6,8,10,12,14,-1,-1,-1,-1,-1,-1,-1,-1],"split_conditions":[6.3E1,1E0,1E0,1E0,1E0,1E0,1E0,-3.3139512E-2,-1.0258812E-2,-1.0300742E-2,1.4846663E-2,-3.3332335E-3,3.239432E-2,1.8232474E-2,3.335058E-2],"split_indices":[0,42,1,16,16,43,16,0,0,0,0,0,0,0,0],"split_type":[0,0,0,0,0,0,0,0,0,0,0,0,0,0,0],"sum_hessian":[1.287642E4,7.1028037E3,5.773616E3,4.602095E3,2.5007083E3,2.7553955E3,3.0182207E3,2.197608E3,2.4044873E3,1.0850022E3,1.4157059E3,2.3513994E3,4.0399622E2,1.3400397E3,1.6781809E3],"tree_param":{"num_deleted":"0","num_feature":"62","num_nodes":"15","size_leaf_vector":"1"}},{"base_weights":[-2.3821332E-3,-8.585789E-2,2.1304092E-1,7.840912E-2,-1.4208493E-1,1.2105387E-1,3.1173298E-1,9.7552E-2,4.3614935E-3,-4.221285E-3,-2.1705763E-2,1.3849248E-2,-2.2333046E-2,3.7906513E-2,1.9186717E-2],"categories":[],"categories_nodes":[],"categories_segments":[],"categories_sizes":[],"default_left":[0,1,0,0,0,0,1,0,0,0,0,0,0,0,0],"id":43,"left_children":[1,3,5,7,9,11,13,-1,-1,-1,-1,-1,-1,-1,-1],"loss_changes":[2.3095197E2,8.5496666E1,3.255191E1,6.5859474E1,7.7069626E1,3.549933E1,2.0236664E1,0E0,0E0,0E0,0E0,0E0,0E0,0E0,0E0],"parents":[2147483647,0,0,1,1,2,2,3,3,4,4,5,5,6,6],"right_children":[2,4,6,8,10,12,14,-1,-1,-1,-1,-1,-1,-1,-1],"split_conditions":[5E-1,6E0,3E0,3E0,4E0,1E0,2E0,9.7552E-2,4.3614935E-3,-4.221285E-3,-2.1705763E-2,1.3849248E-2,-2.2333046E-2,3.7906513E-2,1.9186717E-2],"split_indices":[21,41,36,11,40,57,40,0,0,0,0,0,0,0,0],"split_type":[0,0,0,0,0,0,0,0,0,0,0,0,0,0,0],"sum_hessian":[1.2843237E4,9.256485E3,3.5867517E3,2.3603433E3,6.8961426E3,1.85656E3,1.7301917E3,5.1743748E1,2.3085994E3,3.9832239E3,2.9129185E3,1.653404E3,2.0315599E2,5.802271E2,1.1499646E3],"tree_param":{"num_deleted":"0","num_feature":"62","num_nodes":"15","size_leaf_vector":"1"}},{"base_weights":[-7.810805E-3,-1.4396314E-1,1.198105E-1,-2.5241998E-1,-9.727416E-3,2.4670359E-2,2.2339784E-1,-2.3677303E-2,2.7613144E-2,-3.2030477E-3,5.8811393E-2,-1.1214913E-2,1.1862032E-2,3.346331E-2,9.34445E-3],"categories":[],"categories_nodes":[],"categories_segments":[],"categories_sizes":[],"default_left":[0,0,0,0,1,0,1,0,0,0,0,0,0,0,0],"id":44,"left_children":[1,3,5,7,9,11,13,-1,-1,-1,-1,-1,-1,-1,-1],"loss_changes":[2.2086314E2,8.952978E1,6.4653755E1,7.5157E1,5.9108673E1,6.676416E1,6.3752975E1,0E0,0E0,0E0,0E0,0E0,0E0,0E0,0E0],"parents":[2147483647,0,0,1,1,2,2,3,3,4,4,5,5,6,6],"right_children":[2,4,6,8,10,12,14,-1,-1,-1,-1,-1,-1,-1,-1],"split_conditions":[1E0,1E0,2.983E1,1E0,7.6E1,1E0,3E0,-2.3677303E-2,2.7613144E-2,-3.2030477E-3,5.8811393E-2,-1.1214913E-2,1.1862032E-2,3.346331E-2,9.34445E-3],"split_indices":[1,38,13,34,32,16,40,0,0,0,0,0,0,0,0],"split_type":[0,0,0,0,0,0,0,0,0,0,0,0,0,0,0],"sum_hessian":[1.2710826E4,6.1499517E3,6.560874E3,3.4015056E3,2.748446E3,3.4199934E3,3.1408806E3,3.1988062E3,2.0269943E2,2.641738E3,1.0670806E2,1.4591953E3,1.9607982E3,1.159576E3,1.9813046E3],"tree_param":{"num_deleted":"0","num_feature":"62","num_nodes":"15","size_leaf_vector":"1"}},{"base_weights":[2.2155712E-3,-1.1047163E-1,2.3200604E-1,5.169622E-2,-2.3171784E-1,1.394869E-1,4.0560353E-1,2.6108455E-2,-1.6941325E-3,-2.9930849E-2,-7.990446E-3,1.4780772E-2,-2.7176222E-2,3.716813E-2,-3.839824E-2],"categories":[],"categories_nodes":[],"categories_segments":[],"categories_sizes":[],"default_left":[0,1,0,0,0,1,0,0,0,0,0,0,0,0,0],"id":45,"left_children":[1,3,5,7,9,11,13,-1,-1,-1,-1,-1,-1,-1,-1],"loss_changes":[3.3030154E2,1.6828305E2,6.739743E1,7.105677E1,8.830347E1,5.3581734E1,6.3095932E1,0E0,0E0,0E0,0E0,0E0,0E0,0E0,0E0],"parents":[2147483647,0,0,1,1,2,2,3,3,4,4,5,5,6,6],"right_children":[2,4,6,8,10,12,14,-1,-1,-1,-1,-1,-1,-1,-1],"split_conditions":[6.8E1,3E0,8.2E1,2E0,1E0,5E0,1E0,2.6108455E-2,-1.6941325E-3,-2.9930849E-2,-7.990446E-3,1.4780772E-2,-2.7176222E-2,3.716813E-2,-3.839824E-2],"split_indices":[0,40,0,40,16,40,57,0,0,0,0,0,0,0,0],"split_type":[0,0,0,0,0,0,0,0,0,0,0,0,0,0,0],"sum_hessian":[1.2755581E4,8.5584795E3,4.197102E3,3.661287E3,4.8971924E3,2.738009E3,1.4590928E3,7.7929755E2,2.8819895E3,2.4414727E3,2.4557195E3,2.5170906E3,2.2091846E2,1.3812224E3,7.787032E1],"tree_param":{"num_deleted":"0","num_feature":"62","num_nodes":"15","size_leaf_vector":"1"}},{"base_weights":[-9.4658864E-4,-7.969205E-2,2.8617725E-1,-2.1788967E-1,3.8848933E-2,1.6483085E-1,4.0336907E-1,-3.1598066E-3,-2.6666312E-2,3.1615347E-2,-7.1258924E-4,1.6155794E-2,-2.3380402E-2,3.4233224E-2,-3.5779934E-2],"categories":[],"categories_nodes":[],"categories_segments":[],"categories_sizes":[],"default_left":[0,0,0,1,0,1,0,0,0,0,0,0,0,0,0],"id":46,"left_children":[1,3,5,7,9,11,13,-1,-1,-1,-1,-1,-1,-1,-1],"loss_changes":[2.859019E2,1.6257568E2,3.8689713E1,8.912056E1,8.848245E1,1.9863441E1,1.827678E1,0E0,0E0,0E0,0E0,0E0,0E0,0E0,0E0],"parents":[2147483647,0,0,1,1,2,2,3,3,4,4,5,5,6,6],"right_children":[2,4,6,8,10,12,14,-1,-1,-1,-1,-1,-1,-1,-1],"split_conditions":[7.3E1,1E0,1E0,3E0,2E0,5E0,1E0,-3.1598066E-3,-2.6666312E-2,3.1615347E-2,-7.1258924E-4,1.6155794E-2,-2.3380402E-2,3.4233224E-2,-3.5779934E-2],"split_indices":[0,16,1,40,40,40,59,0,0,0,0,0,0,0,0],"split_type":[0,0,0,0,0,0,0,0,0,0,0,0,0,0,0],"sum_hessian":[1.2645306E4,9.92374E3,2.7215652E3,4.582065E3,5.341676E3,1.3371799E3,1.3843853E3,1.7284677E3,2.853597E3,6.421855E2,4.69949E3,1.2462242E3,9.0955666E1,1.3590665E3,2.5318754E1],"tree_param":{"num_deleted":"0","num_feature":"62","num_nodes":"15","size_leaf_vector":"1"}},{"base_weights":[3.504681E-3,-2.6452765E-2,3.6545792E-1,-1.4880596E-1,8.68844E-2,2.8744978E-1,4.5061654E-1,-1.5137808E-2,2.4389636E-2,-3.5037154E-3,1.5361251E-2,2.5193887E-2,-5.245416E-2,3.7833218E-2,-1.6446335E-2],"categories":[],"categories_nodes":[],"categories_segments":[],"categories_sizes":[],"default_left":[1,0,0,1,0,0,0,0,0,0,0,0,0,0,0],"id":47,"left_children":[1,3,5,7,9,11,13,-1,-1,-1,-1,-1,-1,-1,-1],"loss_changes":[1.3751924E2,1.624188E2,6.4229584E0,9.1969055E1,7.982134E1,9.85207E0,3.7858887E0,0E0,0E0,0E0,0E0,0E0,0E0,0E0,0E0],"parents":[2147483647,0,0,1,1,2,2,3,3,4,4,5,5,6,6],"right_children":[2,4,6,8,10,12,14,-1,-1,-1,-1,-1,-1,-1,-1],"split_conditions":[1E0,1E0,1E0,1E0,1E0,5E0,5E0,-1.5137808E-2,2.4389636E-2,-3.5037154E-3,1.5361251E-2,2.5193887E-2,-5.245416E-2,3.7833218E-2,-1.6446335E-2],"split_indices":[43,1,1,34,16,40,40,0,0,0,0,0,0,0,0],"split_type":[0,0,0,0,0,0,0,0,0,0,0,0,0,0,0],"sum_hessian":[1.2681815E4,1.1712367E4,9.694491E2,5.6322603E3,6.0801064E3,5.0611047E2,4.633386E2,5.2074336E3,4.2482675E2,2.6632368E3,3.4168696E3,4.9497662E2,1.1133841E1,4.546482E2,8.690412E0],"tree_param":{"num_deleted":"0","num_feature":"62","num_nodes":"15","size_leaf_vector":"1"}},{"base_weights":[8.689828E-3,-1.12546615E-1,1.131419E-1,-1.8663175E-1,8.650653E-2,5.0737698E-2,3.0077434E-1,-1.6388016E-2,7.236104E-2,2.430286E-3,3.1599745E-2,3.650107E-2,1.9422207E-3,6.1727203E-2,2.2953616E-2],"categories":[],"categories_nodes":[],"categories_segments":[],"categories_sizes":[],"default_left":[0,0,0,1,0,0,1,0,0,0,0,0,0,0,0],"id":48,"left_children":[1,3,5,7,9,11,13,-1,-1,-1,-1,-1,-1,-1,-1],"loss_changes":[1.5998735E2,8.622779E1,7.945898E1,6.386841E1,2.7021046E1,5.4379593E1,1.5223175E1,0E0,0E0,0E0,0E0,0E0,0E0,0E0,0E0],"parents":[2147483647,0,0,1,1,2,2,3,3,4,4,5,5,6,6],"right_children":[2,4,6,8,10,12,14,-1,-1,-1,-1,-1,-1,-1,-1],"split_conditions":[1E0,5E-1,1E0,1E0,1E0,5E0,4E0,-1.6388016E-2,7.236104E-2,2.430286E-3,3.1599745E-2,3.650107E-2,1.9422207E-3,6.1727203E-2,2.2953616E-2],"split_indices":[16,21,21,30,44,41,41,0,0,0,0,0,0,0,0],"split_type":[0,0,0,0,0,0,0,0,0,0,0,0,0,0,0],"sum_hessian":[1.2633838E4,5.84703E3,6.786808E3,4.261185E3,1.585845E3,5.0930483E3,1.6937599E3,4.2063755E3,5.480949E1,1.3338416E3,2.5200342E2,3.2454294E2,4.7685054E3,7.057496E1,1.6231849E3],"tree_param":{"num_deleted":"0","num_feature":"62","num_nodes":"15","size_leaf_vector":"1"}},{"base_weights":[-2.5273475E-3,3.062248E-1,-2.133938E-2,5.6299764E-1,1.9674437E-1,-8.99596E-2,1.6280922E-1,2.1293515E-2,5.6162298E-2,6.544933E-4,2.5835276E-2,-9.498548E-3,2.4040338E-2,3.395919E-2,9.498341E-3],"categories":[],"categories_nodes":[],"categories_segments":[],"categories_sizes":[],"default_left":[0,0,0,0,0,1,1,0,0,0,0,0,0,0,0],"id":49,"left_children":[1,3,5,7,9,11,13,-1,-1,-1,-1,-1,-1,-1,-1],"loss_changes":[7.283979E1,2.0228607E1,1.4938051E2,8.079353E0,1.138316E1,8.708153E1,3.7756584E1,0E0,0E0,0E0,0E0,0E0,0E0,0E0,0E0],"parents":[2147483647,0,0,1,1,2,2,3,3,4,4,5,5,6,6],"right_children":[2,4,6,8,10,12,14,-1,-1,-1,-1,-1,-1,-1,-1],"split_conditions":[5E0,2E0,5E-1,1E0,3E0,1.37E2,2E0,2.1293515E-2,5.6162298E-2,6.544933E-4,2.5835276E-2,-9.498548E-3,2.4040338E-2,3.395919E-2,9.498341E-3],"split_indices":[41,40,21,16,40,2,40,0,0,0,0,0,0,0,0],"split_type":[0,0,0,0,0,0,0,0,0,0,0,0,0,0,0],"sum_hessian":[1.2541863E4,7.202087E2,1.1821654E4,2.1522041E2,5.0498828E2,8.612472E3,3.2091829E3,6.2832207E1,1.523882E2,1.9587044E2,3.0911786E2,8.0605024E3,5.5196936E2,4.986801E2,2.7105027E3],"tree_param":{"num_deleted":"0","num_feature":"62","num_nodes":"15","size_leaf_vector":"1"}},{"base_weights":[2.8688402E-4,-1.2763864E-1,1.568017E-1,-3.4544206E-1,-7.022269E-2,8.842162E-2,3.5721317E-1,-3.1067226E-2,4.9654447E-2,-8.678569E-3,3.622721E-2,-7.177298E-3,1.9765599E-2,2.0106664E-2,3.7194036E-2],"categories":[],"categories_nodes":[],"categories_segments":[],"categories_sizes":[],"default_left":[0,0,0,1,1,0,0,0,0,0,0,0,0,0,0],"id":50,"left_children":[1,3,5,7,9,11,13,-1,-1,-1,-1,-1,-1,-1,-1],"loss_changes":[2.5116882E2,8.630977E1,7.730693E1,4.7848907E1,1.01053795E2,1.1385965E2,1.562175E1,0E0,0E0,0E0,0E0,0E0,0E0,0E0,0E0],"parents":[2147483647,0,0,1,1,2,2,3,3,4,4,5,5,6,6],"right_children":[2,4,6,8,10,12,14,-1,-1,-1,-1,-1,-1,-1,-1],"split_conditions":[6.3E1,4E1,8.2E1,1E0,1E0,1E0,1E0,-3.1067226E-2,4.9654447E-2,-8.678569E-3,3.622721E-2,-7.177298E-3,1.9765599E-2,2.0106664E-2,3.7194036E-2],"split_indices":[0,0,0,34,34,1,16,0,0,0,0,0,0,0,0],"split_type":[0,0,0,0,0,0,0,0,0,0,0,0,0,0,0],"sum_hessian":[1.2544455E4,6.9025728E3,5.641883E3,1.4399219E3,5.462651E3,4.206685E3,1.4351978E3,1.3891443E3,5.077764E1,5.1048022E3,3.5784872E2,1.9582177E3,2.2484673E3,6.7315027E2,7.620474E2],"tree_param":{"num_deleted":"0","num_feature":"62","num_nodes":"15","size_leaf_vector":"1"}},{"base_weights":[-2.996202E-4,-2.9067686E-2,3.4704098E-1,8.09707E-2,-9.714005E-2,9.046371E-1,3.2564887E-1,9.192809E-3,-2.8641252E-2,1.1017779E-2,-9.983272E-3,8.683062E-2,4.783596E-2,2.2989662E-2,3.627274E-2],"categories":[],"categories_nodes":[],"categories_segments":[],"categories_sizes":[],"default_left":[1,1,0,0,0,0,0,0,0,0,0,0,0,0,0],"id":51,"left_children":[1,3,5,7,9,11,13,-1,-1,-1,-1,-1,-1,-1,-1],"loss_changes":[1.2427167E2,8.6038536E1,1.13181305E1,5.9789276E1,4.1273994E1,1.7342587E0,4.7794266E0,0E0,0E0,0E0,0E0,0E0,0E0,0E0,0E0],"parents":[2147483647,0,0,1,1,2,2,3,3,4,4,5,5,6,6],"right_children":[2,4,6,8,10,12,14,-1,-1,-1,-1,-1,-1,-1,-1],"split_conditions":[1E0,3E0,4E0,1E0,6E0,3.636E1,1E0,9.192809E-3,-2.8641252E-2,1.1017779E-2,-9.983272E-3,8.683062E-2,4.783596E-2,2.2989662E-2,3.627274E-2],"split_indices":[34,40,41,58,41,13,42,0,0,0,0,0,0,0,0],"split_type":[0,0,0,0,0,0,0,0,0,0,0,0,0,0,0],"sum_hessian":[1.2437453E4,1.148619E4,9.5126245E2,4.389792E3,7.096399E3,3.51051E1,9.1615735E2,4.090691E3,2.991011E2,6.9189685E2,6.404502E3,2.341433E1,1.1690768E1,6.67126E2,2.4903134E2],"tree_param":{"num_deleted":"0","num_feature":"62","num_nodes":"15","size_leaf_vector":"1"}},{"base_weights":[-2.3001507E-3,-1.2067922E-1,1.0825101E-1,-2.4468529E-1,-1.2354839E-2,8.1360094E-2,4.4942668E-1,-2.9655878E-2,-1.0054791E-2,-4.706294E-3,3.090057E-2,-2.1298623E-3,1.3635742E-2,2.8255155E-2,4.2510066E-2],"categories":[],"categories_nodes":[],"categories_segments":[],"categories_sizes":[],"default_left":[0,0,1,0,1,0,0,0,0,0,0,0,0,0,0],"id":52,"left_children":[1,3,5,7,9,11,13,-1,-1,-1,-1,-1,-1,-1,-1],"loss_changes":[1.6336578E2,8.09705E1,5.920804E1,4.043445E1,5.6874596E1,5.500139E1,3.4441147E0,0E0,0E0,0E0,0E0,0E0,0E0,0E0,0E0],"parents":[2147483647,0,0,1,1,2,2,3,3,4,4,5,5,6,6],"right_children":[2,4,6,8,10,12,14,-1,-1,-1,-1,-1,-1,-1,-1],"split_conditions":[1E0,2E0,1E0,1E0,1E0,1E0,1E0,-2.9655878E-2,-1.0054791E-2,-4.706294E-3,3.090057E-2,-2.1298623E-3,1.3635742E-2,2.8255155E-2,4.2510066E-2],"split_indices":[1,36,34,16,43,16,16,0,0,0,0,0,0,0,0],"split_type":[0,0,0,0,0,0,0,0,0,0,0,0,0,0,0],"sum_hessian":[1.2483086E4,6.028224E3,6.4548623E3,2.8105676E3,3.2176565E3,5.9833345E3,4.715278E2,1.4242721E3,1.3862955E3,2.8836245E3,3.3403204E2,2.652487E3,3.3308474E3,1.9186389E2,2.796639E2],"tree_param":{"num_deleted":"0","num_feature":"62","num_nodes":"15","size_leaf_vector":"1"}},{"base_weights":[-3.2187605E-3,-6.5619245E-2,1.5863681E-1,-1.911206E-1,1.12309255E-1,3.7038755E-1,1.1627424E-1,-1.8274497E-2,3.809207E-2,1.0760385E-2,-3.0217923E-2,2.8876364E-2,8.942937E-2,6.6928454E-3,2.8150331E-2],"categories":[],"categories_nodes":[],"categories_segments":[],"categories_sizes":[],"default_left":[0,0,1,1,1,1,0,0,0,0,0,0,0,0,0],"id":53,"left_children":[1,3,5,7,9,11,13,-1,-1,-1,-1,-1,-1,-1,-1],"loss_changes":[1.2524984E2,1.9987361E2,3.0942047E1,1.1242767E2,3.4648937E1,7.00782E0,2.2538944E1,0E0,0E0,0E0,0E0,0E0,0E0,0E0,0E0],"parents":[2147483647,0,0,1,1,2,2,3,3,4,4,5,5,6,6],"right_children":[2,4,6,8,10,12,14,-1,-1,-1,-1,-1,-1,-1,-1],"split_conditions":[5E-1,6.3E1,2E0,1E0,1E0,2E1,1E0,-1.8274497E-2,3.809207E-2,1.0760385E-2,-3.0217923E-2,2.8876364E-2,8.942937E-2,6.6928454E-3,2.8150331E-2],"split_indices":[21,0,40,34,35,17,43,0,0,0,0,0,0,0,0],"split_type":[0,0,0,0,0,0,0,0,0,0,0,0,0,0,0],"sum_hessian":[1.240135E4,8.950709E3,3.4506409E3,5.24869E3,3.7020188E3,5.751551E2,2.8754856E3,5.0008667E3,2.4782317E2,3.5588032E3,1.4321564E2,5.6207306E2,1.3082022E1,2.4995947E3,3.7589093E2],"tree_param":{"num_deleted":"0","num_feature":"62","num_nodes":"15","size_leaf_vector":"1"}},{"base_weights":[-1.5909633E-3,-9.8939836E-2,8.965631E-2,-1.0798444E-1,1.0706142E0,3.4147292E-2,2.3633051E-1,9.594976E-2,-9.339495E-3,6.879827E-2,9.649074E-2,1.0636994E-3,3.4999568E-2,1.0219173E-3,2.4363484E-2],"categories":[],"categories_nodes":[],"categories_segments":[],"categories_sizes":[],"default_left":[0,1,0,0,0,1,0,0,0,0,0,0,0,0,0],"id":54,"left_children":[1,3,5,7,9,11,13,-1,-1,-1,-1,-1,-1,-1,-1],"loss_changes":[1.0977139E2,6.322541E1,5.1926895E1,4.8247025E1,1.1105576E0,3.853663E1,2.4258224E1,0E0,0E0,0E0,0E0,0E0,0E0,0E0,0E0],"parents":[2147483647,0,0,1,1,2,2,3,3,4,4,5,5,6,6],"right_children":[2,4,6,8,10,12,14,-1,-1,-1,-1,-1,-1,-1,-1],"split_conditions":[1E0,1.925E2,5E-1,3E0,1.05E2,8.75E1,2.757E1,9.594976E-2,-9.339495E-3,6.879827E-2,9.649074E-2,1.0636994E-3,3.4999568E-2,1.0219173E-3,2.4363484E-2],"split_indices":[1,2,21,10,12,12,13,0,0,0,0,0,0,0,0],"split_type":[0,0,0,0,0,0,0,0,0,0,0,0,0,0,0],"sum_hessian":[1.2357693E4,5.9790664E3,6.3786274E3,5.933203E3,4.5862934E1,4.6275024E3,1.7511249E3,2.9182608E1,5.9040205E3,1.502931E1,3.0833626E1,4.3922275E3,2.352747E2,3.7950732E2,1.3716176E3],"tree_param":{"num_deleted":"0","num_feature":"62","num_nodes":"15","size_leaf_vector":"1"}},{"base_weights":[9.280141E-4,9.5331855E-2,-3.3041642E-3,2.454782E-1,-1.8203612E-2,4.0672995E-2,1.1501047E-2,-9.133015E-3,5.6253737E-3],"categories":[],"categories_nodes":[],"categories_segments":[],"categories_sizes":[],"default_left":[0,0,0,0,0,0,0,0,0],"id":55,"left_children":[1,-1,3,5,7,-1,-1,-1,-1],"loss_changes":[6.0887093E1,0E0,4.5542217E1,1.8330624E1,9.447776E1,0E0,0E0,0E0,0E0],"parents":[2147483647,0,0,2,2,3,3,4,4],"right_children":[2,-1,4,6,8,-1,-1,-1,-1],"split_conditions":[3E0,9.5331855E-2,5E0,2E0,1E0,4.0672995E-2,1.1501047E-2,-9.133015E-3,5.6253737E-3],"split_indices":[11,0,41,40,1,0,0,0,0],"split_type":[0,0,0,0,0,0,0,0,0],"sum_hessian":[1.2332419E4,4.4616745E1,1.2287803E4,6.942389E2,1.1593563E4,2.0346002E2,4.9077887E2,5.5873535E3,6.00621E3],"tree_param":{"num_deleted":"0","num_feature":"62","num_nodes":"9","size_leaf_vector":"1"}},{"base_weights":[-8.230115E-3,-3.323801E-2,2.9863644E-1,-1.3194558E-1,1.7563662E-1,9.0065897E-1,2.7429524E-1,7.5621377E-3,-1.698777E-2,4.315138E-3,2.3886548E-2,5.7582807E-2,9.4932824E-2,3.0443477E-2,2.0604702E-2],"categories":[],"categories_nodes":[],"categories_segments":[],"categories_sizes":[],"default_left":[1,0,0,1,0,0,0,0,0,0,0,0,0,0,0],"id":56,"left_children":[1,3,5,7,9,11,13,-1,-1,-1,-1,-1,-1,-1,-1],"loss_changes":[9.433999E1,2.3437433E2,1.35471115E1,1.3173997E2,5.2306488E1,1.7966251E0,1.9182434E0,0E0,0E0,0E0,0E0,0E0,0E0,0E0,0E0],"parents":[2147483647,0,0,1,1,2,2,3,3,4,4,5,5,6,6],"right_children":[2,4,6,8,10,12,14,-1,-1,-1,-1,-1,-1,-1,-1],"split_conditions":[1E0,6.8E1,4E0,2E0,1E0,3E0,2E0,7.5621377E-3,-1.698777E-2,4.315138E-3,2.3886548E-2,5.7582807E-2,9.4932824E-2,3.0443477E-2,2.0604702E-2],"split_indices":[34,0,41,40,1,40,40,0,0,0,0,0,0,0,0],"split_type":[0,0,0,0,0,0,0,0,0,0,0,0,0,0,0],"sum_hessian":[1.2294113E4,1.1367779E4,9.2633374E2,7.71977E3,3.6480098E3,3.595998E1,8.903738E2,1.9523826E3,5.767387E3,1.7780659E3,1.8699438E3,2.0615614E1,1.5344367E1,1.629328E2,7.27441E2],"tree_param":{"num_deleted":"0","num_feature":"62","num_nodes":"15","size_leaf_vector":"1"}},{"base_weights":[7.1998206E-3,-7.974607E-2,8.287889E-2,-9.133224E-2,7.0934165E-1,6.974542E-2,4.270486E-1,-1.422634E-2,1.54490145E-2,4.3059316E-2,7.661027E-2,-5.4753345E-2,8.025844E-3,1.29447365E-2,4.8510123E-2],"categories":[],"categories_nodes":[],"categories_segments":[],"categories_sizes":[],"default_left":[0,1,1,0,0,0,0,0,0,0,0,0,0,0,0],"id":57,"left_children":[1,3,5,7,9,11,13,-1,-1,-1,-1,-1,-1,-1,-1],"loss_changes":[8.1113625E1,5.243176E1,2.9779976E1,1.313082E2,3.4206848E0,1.3388734E2,1.0831741E1,0E0,0E0,0E0,0E0,0E0,0E0,0E0,0E0],"parents":[2147483647,0,0,1,1,2,2,3,3,4,4,5,5,6,6],"right_children":[2,4,6,8,10,12,14,-1,-1,-1,-1,-1,-1,-1,-1],"split_conditions":[1E0,1.745E2,1.375E2,7.3E1,1.915E2,2.8E1,1E0,-1.422634E-2,1.54490145E-2,4.3059316E-2,7.661027E-2,-5.4753345E-2,8.025844E-3,1.29447365E-2,4.8510123E-2],"split_indices":[16,2,2,0,2,0,1,0,0,0,0,0,0,0,0],"split_type":[0,0,0,0,0,0,0,0,0,0,0,0,0,0,0],"sum_hessian":[1.2327315E4,5.736491E3,6.5908237E3,5.653511E3,8.298027E1,6.3486294E3,2.4219446E2,4.36469E3,1.288821E3,4.621885E1,3.6761417E1,2.354228E2,6.1132065E3,9.2833435E1,1.4936104E2],"tree_param":{"num_deleted":"0","num_feature":"62","num_nodes":"15","size_leaf_vector":"1"}},{"base_weights":[-1.4641418E-2,-2.3816761E-1,5.4855604E-2,2.9086512E-1,-2.8226677E-1,-3.9446007E-2,1.4414822E-1,6.0576066E-2,1.2587741E-2,-4.8011187E-2,-1.7557202E-2,-8.331782E-3,2.3409192E-2,1.1018199E-2,6.725608E-2],"categories":[],"categories_nodes":[],"categories_segments":[],"categories_sizes":[],"default_left":[0,0,0,0,0,0,1,0,0,0,0,0,0,0,0],"id":58,"left_children":[1,3,5,7,9,11,13,-1,-1,-1,-1,-1,-1,-1,-1],"loss_changes":[1.895702E2,6.7523285E1,7.8385635E1,1.3703848E1,5.493744E1,9.230802E1,3.0082985E1,0E0,0E0,0E0,0E0,0E0,0E0,0E0,0E0],"parents":[2147483647,0,0,1,1,2,2,3,3,4,4,5,5,6,6],"right_children":[2,4,6,8,10,12,14,-1,-1,-1,-1,-1,-1,-1,-1],"split_conditions":[4.9E1,5E0,1E0,2.8E1,2.9E1,8.2E1,1.62E2,6.0576066E-2,1.2587741E-2,-4.8011187E-2,-1.7557202E-2,-8.331782E-3,2.3409192E-2,1.1018199E-2,6.725608E-2],"split_indices":[0,41,1,0,0,0,2,0,0,0,0,0,0,0,0],"split_type":[0,0,0,0,0,0,0,0,0,0,0,0,0,0,0],"sum_hessian":[1.2202974E4,2.8942866E3,9.3086875E3,2.2265768E2,2.671629E3,4.5272334E3,4.7814536E3,5.1801083E1,1.708566E2,4.8254593E2,2.189083E3,3.7985337E3,7.286998E2,4.717099E3,6.4354454E1],"tree_param":{"num_deleted":"0","num_feature":"62","num_nodes":"15","size_leaf_vector":"1"}},{"base_weights":[1.0252643E-2,-2.8740156E-1,4.6553824E-2,3.842004E-1,-3.5307816E-1,-5.0245523E-2,1.2861063E-1,5.328713E-2,1.3426342E-2,-4.3916155E-2,-1.940452E-2,-9.953198E-3,1.3023556E-2,7.97715E-3,2.8955394E-2],"categories":[],"categories_nodes":[],"categories_segments":[],"categories_sizes":[],"default_left":[0,0,0,0,0,0,0,0,0,0,0,0,0,0,0],"id":59,"left_children":[1,3,5,7,9,11,13,-1,-1,-1,-1,-1,-1,-1,-1],"loss_changes":[1.3219717E2,5.8659187E1,8.6622375E1,6.9618435E0,2.5809052E1,7.510178E1,4.125746E1,0E0,0E0,0E0,0E0,0E0,0E0,0E0,0E0],"parents":[2147483647,0,0,1,1,2,2,3,3,4,4,5,5,6,6],"right_children":[2,4,6,8,10,12,14,-1,-1,-1,-1,-1,-1,-1,-1],"split_conditions":[4E1,5E0,1E0,2.8E1,2.9E1,7.3E1,8.2E1,5.328713E-2,1.3426342E-2,-4.3916155E-2,-1.940452E-2,-9.953198E-3,1.3023556E-2,7.97715E-3,2.8955394E-2],"split_indices":[0,41,16,0,0,0,0,0,0,0,0,0,0,0,0],"split_type":[0,0,0,0,0,0,0,0,0,0,0,0,0,0,0],"sum_hessian":[1.2235102E4,1.3298942E3,1.0905208E4,1.1843493E2,1.2114592E3,5.003034E3,5.9021733E3,5.3312195E1,6.5122734E1,4.6641214E2,7.4504706E2,3.7296184E3,1.2734159E3,5.1907085E3,7.114649E2],"tree_param":{"num_deleted":"0","num_feature":"62","num_nodes":"15","size_leaf_vector":"1"}},{"base_weights":[4.133674E-3,-6.2414713E-2,7.68382E-2,-2.6860854E-1,7.581656E-3,-6.472936E-1,8.861615E-2,-2.3602318E-2,-1.11204265E-2,1.1967462E-2,-3.271594E-3,-8.097119E-3,-1.3183619E-1,8.99268E-2,6.6845207E-3],"categories":[],"categories_nodes":[],"categories_segments":[],"categories_sizes":[],"default_left":[0,0,0,0,0,0,0,0,0,0,0,0,0,0,0],"id":60,"left_children":[1,3,5,7,9,11,13,-1,-1,-1,-1,-1,-1,-1,-1],"loss_changes":[5.8901485E1,9.173822E1,4.960726E1,4.3256454E0,3.1397934E1,4.927955E1,3.9311237E1,0E0,0E0,0E0,0E0,0E0,0E0,0E0,0E0],"parents":[2147483647,0,0,1,1,2,2,3,3,4,4,5,5,6,6],"right_children":[2,4,6,8,10,12,14,-1,-1,-1,-1,-1,-1,-1,-1],"split_conditions":[2E0,1E0,1.09E2,1E0,1E0,1.05E2,3E0,-2.3602318E-2,-1.11204265E-2,1.1967462E-2,-3.271594E-3,-8.097119E-3,-1.3183619E-1,8.99268E-2,6.6845207E-3],"split_indices":[36,61,2,59,39,2,11,0,0,0,0,0,0,0,0],"split_type":[0,0,0,0,0,0,0,0,0,0,0,0,0,0,0],"sum_hessian":[1.217376E4,6.355805E3,5.817954E3,1.6108685E3,4.7449365E3,9.30817E1,5.7248726E3,1.3965369E3,2.1433171E2,1.2116334E3,3.5333032E3,5.9411922E1,3.366978E1,3.8115723E1,5.686757E3],"tree_param":{"num_deleted":"0","num_feature":"62","num_nodes":"15","size_leaf_vector":"1"}},{"base_weights":[4.7059134E-3,-1.8615565E-1,6.301634E-2,7.3182814E-2,-1.9584627E-1,8.290209E-2,-1.5287535E-1,-2.9640308E-2,-1.0118175E-2,3.3528886E-3,2.5847644E-2,-9.400456E-3,-4.0997673E-2],"categories":[],"categories_nodes":[],"categories_segments":[],"categories_sizes":[],"default_left":[0,0,0,0,0,0,0,0,0,0,0,0,0],"id":61,"left_children":[1,3,5,-1,7,9,11,-1,-1,-1,-1,-1,-1],"loss_changes":[1.3497508E2,2.9742805E1,3.9882484E1,0E0,3.380333E1,8.3137985E1,1.0321108E1,0E0,0E0,0E0,0E0,0E0,0E0],"parents":[2147483647,0,0,1,1,2,2,4,4,5,5,6,6],"right_children":[2,4,6,-1,8,10,12,-1,-1,-1,-1,-1,-1],"split_conditions":[4.9E1,2E0,1E0,7.3182814E-2,3.7E1,8.2E1,8.2E1,-2.9640308E-2,-1.0118175E-2,3.3528886E-3,2.5847644E-2,-9.400456E-3,-4.0997673E-2],"split_indices":[0,5,57,0,0,0,0,0,0,0,0,0,0],"split_type":[0,0,0,0,0,0,0,0,0,0,0,0,0],"sum_hessian":[1.2128246E4,2.8381199E3,9.290126E3,2.5170864E1,2.812949E3,8.506684E3,7.83442E2,8.4723694E2,1.965712E3,7.2136724E3,1.2930117E3,7.0693726E2,7.65047E1],"tree_param":{"num_deleted":"0","num_feature":"62","num_nodes":"13","size_leaf_vector":"1"}},{"base_weights":[-5.4303794E-3,-2.0027062E-1,5.34167E-2,-2.337197E-1,5.160491E-1,1.3556576E-2,2.4442267E-1,-2.3351517E-2,1.1218022E-2,3.3309124E-2,4.8462927E-2,-6.8592248E-3,7.7126804E-3,-6.8567594E-4,2.4437388E-2],"categories":[],"categories_nodes":[],"categories_segments":[],"categories_sizes":[],"default_left":[0,1,0,0,0,0,0,0,0,0,0,0,0,0,0],"id":62,"left_children":[1,3,5,7,9,11,13,-1,-1,-1,-1,-1,-1,-1,-1],"loss_changes":[1.3868037E2,6.721884E1,7.071728E1,5.1856354E1,1.0229492E0,6.060298E1,2.2194214E1,0E0,0E0,0E0,0E0,0E0,0E0,0E0,0E0],"parents":[2147483647,0,0,1,1,2,2,3,3,4,4,5,5,6,6],"right_children":[2,4,6,8,10,12,14,-1,-1,-1,-1,-1,-1,-1,-1],"split_conditions":[4.9E1,1E0,1E0,1E0,1E0,1E0,8.15E1,-2.3351517E-2,1.1218022E-2,3.3309124E-2,4.8462927E-2,-6.8592248E-3,7.7126804E-3,-6.8567594E-4,2.4437388E-2],"split_indices":[0,34,43,21,61,16,12,0,0,0,0,0,0,0,0],"split_type":[0,0,0,0,0,0,0,0,0,0,0,0,0,0,0],"sum_hessian":[1.2094858E4,2.8056978E3,9.28916E3,2.6805598E3,1.2513781E2,7.685444E3,1.6037166E3,2.3503777E3,3.301821E2,5.220681E1,7.2931E1,3.4835737E3,4.20187E3,2.8529092E2,1.3184255E3],"tree_param":{"num_deleted":"0","num_feature":"62","num_nodes":"15","size_leaf_vector":"1"}},{"base_weights":[8.236952E-3,-1.1783449E-2,2.600993E-1,-4.4834126E-2,2.6085016E-1,3.2917705E-1,1.4742683E-1,-5.1306323E-3,2.779203E-2,-1.717721E-2,2.7241768E-2,1.7184347E-2,3.039709E-2,7.913609E-3,1.7207421E-2],"categories":[],"categories_nodes":[],"categories_segments":[],"categories_sizes":[],"default_left":[1,0,0,1,0,0,0,0,0,0,0,0,0,0,0],"id":63,"left_children":[1,3,5,7,9,11,13,-1,-1,-1,-1,-1,-1,-1,-1],"loss_changes":[6.077829E1,1.0059774E2,6.8970795E0,6.890026E1,4.1303253E1,2.7921066E0,1.0713553E0,0E0,0E0,0E0,0E0,0E0,0E0,0E0,0E0],"parents":[2147483647,0,0,1,1,2,2,3,3,4,4,5,5,6,6],"right_children":[2,4,6,8,10,12,14,-1,-1,-1,-1,-1,-1,-1,-1],"split_conditions":[1E0,8.2E1,2E0,5.6E1,1E0,1E0,1E0,-5.1306323E-3,2.779203E-2,-1.717721E-2,2.7241768E-2,1.7184347E-2,3.039709E-2,7.913609E-3,1.7207421E-2],"split_indices":[43,0,37,32,61,61,39,0,0,0,0,0,0,0,0],"split_type":[0,0,0,0,0,0,0,0,0,0,0,0,0,0,0],"sum_hessian":[1.2052343E4,1.11647705E4,8.875719E2,9.957709E3,1.2070621E3,5.501046E2,3.3746732E2,9.513725E3,4.439844E2,1.6117842E2,1.0458837E3,1.4613483E2,4.039698E2,1.8771642E2,1.497509E2],"tree_param":{"num_deleted":"0","num_feature":"62","num_nodes":"15","size_leaf_vector":"1"}},{"base_weights":[-1.5467439E-3,-2.1842837E-2,2.5310034E-1,-4.013746E-2,2.2874261E-1,2.0358074E-1,3.8126183E-1,-6.595564E-3,5.1510963E-3,-4.715425E-2,2.2109007E-2,6.268599E-2,1.5061823E-2,-4.390653E-2,3.4155436E-2],"categories":[],"categories_nodes":[],"categories_segments":[],"categories_sizes":[],"default_left":[1,1,0,0,0,0,0,0,0,0,0,0,0,0,0],"id":64,"left_children":[1,3,5,7,9,11,13,-1,-1,-1,-1,-1,-1,-1,-1],"loss_changes":[6.213967E1,5.1050083E1,5.619156E0,4.3486084E1,2.5580067E1,6.9103603E0,8.3665695E0,0E0,0E0,0E0,0E0,0E0,0E0,0E0,0E0],"parents":[2147483647,0,0,1,1,2,2,3,3,4,4,5,5,6,6],"right_children":[2,4,6,8,10,12,14,-1,-1,-1,-1,-1,-1,-1,-1],"split_conditions":[1E0,1E0,1E0,1E0,2.041E1,1.621E1,1.937E1,-6.595564E-3,5.1510963E-3,-4.715425E-2,2.2109007E-2,6.268599E-2,1.5061823E-2,-4.390653E-2,3.4155436E-2],"split_indices":[34,43,42,42,13,13,13,0,0,0,0,0,0,0,0],"split_type":[0,0,0,0,0,0,0,0,0,0,0,0,0,0,0],"sum_hessian":[1.2024166E4,1.1136637E4,8.875299E2,1.0378985E4,7.5765106E2,6.403078E2,2.472221E2,7.448595E3,2.93039E3,3.7414608E1,7.2023645E2,2.1051119E1,6.192567E2,9.507965E0,2.3771414E2],"tree_param":{"num_deleted":"0","num_feature":"62","num_nodes":"15","size_leaf_vector":"1"}},{"base_weights":[2.1145544E-3,-4.179602E-2,1.4065647E-1,-6.318655E-2,2.7390674E-1,3.1613296E-1,1.0564998E-1,-6.7165927E-3,2.5118234E-2,2.4978401E-2,-2.1697339E-3,2.86948E-2,-2.9324112E-2,-2.7141387E-2,1.021442E-2],"categories":[],"categories_nodes":[],"categories_segments":[],"categories_sizes":[],"default_left":[0,1,1,1,0,0,0,0,0,0,0,0,0,0,0],"id":65,"left_children":[1,3,5,7,9,11,13,-1,-1,-1,-1,-1,-1,-1,-1],"loss_changes":[7.327936E1,6.176026E1,1.7798584E1,6.0428547E1,5.562149E0,1.1432251E1,2.0515768E1,0E0,0E0,0E0,0E0,0E0,0E0,0E0,0E0],"parents":[2147483647,0,0,1,1,2,2,3,3,4,4,5,5,6,6],"right_children":[2,4,6,8,10,12,14,-1,-1,-1,-1,-1,-1,-1,-1],"split_conditions":[1E0,1E0,2E0,5.55E1,4.164E1,5.538E1,2.161E1,-6.7165927E-3,2.5118234E-2,2.4978401E-2,-2.1697339E-3,2.86948E-2,-2.9324112E-2,-2.7141387E-2,1.021442E-2],"split_indices":[21,34,40,32,13,13,13,0,0,0,0,0,0,0,0],"split_type":[0,0,0,0,0,0,0,0,0,0,0,0,0,0,0],"sum_hessian":[1.2045303E4,9.146251E3,2.899051E3,8.5659375E3,5.803136E2,4.8204492E2,2.417006E3,8.147625E3,4.1831268E2,5.247449E2,5.5568768E1,4.5823465E2,2.3810276E1,1.0242633E2,2.3145798E3],"tree_param":{"num_deleted":"0","num_feature":"62","num_nodes":"15","size_leaf_vector":"1"}},{"base_weights":[-2.100628E-3,-7.591449E-2,6.8252325E-2,-2.1188874E-2,-2.366261E-1,-1.7646834E-2,1.8553197E-1,8.100429E-2,-2.3094476E-3,-4.927285E-2,-1.468326E-2,-3.1605777E-3,3.2667354E-2,3.3636708E-2,1.304875E-2],"categories":[],"categories_nodes":[],"categories_segments":[],"categories_sizes":[],"default_left":[0,1,0,0,0,1,0,0,0,0,0,0,0,0,0],"id":66,"left_children":[1,3,5,7,9,11,13,-1,-1,-1,-1,-1,-1,-1,-1],"loss_changes":[6.2157722E1,5.13677E1,6.1741005E1,3.1231907E1,3.0916603E1,3.1070728E1,1.5108086E1,0E0,0E0,0E0,0E0,0E0,0E0,0E0,0E0],"parents":[2147483647,0,0,1,1,2,2,3,3,4,4,5,5,6,6],"right_children":[2,4,6,8,10,12,14,-1,-1,-1,-1,-1,-1,-1,-1],"split_conditions":[1E0,4E0,3.1E1,2E0,2.009E1,2.57E2,2E0,8.100429E-2,-2.3094476E-3,-4.927285E-2,-1.468326E-2,-3.1605777E-3,3.2667354E-2,3.3636708E-2,1.304875E-2],"split_indices":[1,40,13,5,13,3,40,0,0,0,0,0,0,0,0],"split_type":[0,0,0,0,0,0,0,0,0,0,0,0,0,0,0],"sum_hessian":[1.1969432E4,5.841205E3,6.1282266E3,4.3575234E3,1.4836816E3,3.5372456E3,2.590981E3,3.0234383E1,4.327289E3,1.9926418E2,1.2844175E3,3.3675845E3,1.6966118E2,2.6512546E2,2.3258555E3],"tree_param":{"num_deleted":"0","num_feature":"62","num_nodes":"15","size_leaf_vector":"1"}},{"base_weights":[-5.6356094E-3,-7.7643126E-2,6.2779814E-2,-3.0014887E-2,-2.1831891E-1,8.530284E-3,1.2880477E-1,7.967602E-2,-3.0256556E-3,-2.5420496E-3,-2.1986587E-2,-1.4305336E-2,5.5956235E-3,1.310393E-2,1.44097E-3],"categories":[],"categories_nodes":[],"categories_segments":[],"categories_sizes":[],"default_left":[0,1,0,0,0,0,1,0,0,0,0,0,0,0,0],"id":67,"left_children":[1,3,5,7,9,11,13,-1,-1,-1,-1,-1,-1,-1,-1],"loss_changes":[5.8647278E1,3.8856304E1,2.186164E1,3.0574696E1,1.3950569E1,3.6903942E1,9.668819E0,0E0,0E0,0E0,0E0,0E0,0E0,0E0,0E0],"parents":[2147483647,0,0,1,1,2,2,3,3,4,4,5,5,6,6],"right_children":[2,4,6,8,10,12,14,-1,-1,-1,-1,-1,-1,-1,-1],"split_conditions":[1E0,4E0,1E0,2.6E0,1E0,1E0,3E1,7.967602E-2,-3.0256556E-3,-2.5420496E-3,-2.1986587E-2,-1.4305336E-2,5.5956235E-3,1.310393E-2,1.44097E-3],"split_indices":[1,40,36,8,39,61,36,0,0,0,0,0,0,0,0],"split_type":[0,0,0,0,0,0,0,0,0,0,0,0,0,0,0],"sum_hessian":[1.190456E4,5.8001816E3,6.1043784E3,4.3332495E3,1.466932E3,3.3512046E3,2.7531736E3,3.0037262E1,4.3032124E3,3.1333395E2,1.153598E3,8.248309E2,2.5263738E3,2.1435444E3,6.096293E2],"tree_param":{"num_deleted":"0","num_feature":"62","num_nodes":"15","size_leaf_vector":"1"}},{"base_weights":[-2.8917226E-3,-7.9756536E-2,6.9367975E-2,-8.686504E-2,9.2743945E-1,-1.1911696E0,7.496101E-2,-1.2984453E-2,9.357456E-4,9.496183E-2,4.6751507E-2,-1.7566286E-1,-1.4822317E-2,1.7214075E-3,1.4151047E-2],"categories":[],"categories_nodes":[],"categories_segments":[],"categories_sizes":[],"default_left":[0,1,0,1,0,0,0,0,0,0,0,0,0,0,0],"id":68,"left_children":[1,3,5,7,9,11,13,-1,-1,-1,-1,-1,-1,-1,-1],"loss_changes":[6.6144394E1,4.129674E1,4.324951E1,4.0614277E1,3.332878E0,2.6188995E1,3.235625E1,0E0,0E0,0E0,0E0,0E0,0E0,0E0,0E0],"parents":[2147483647,0,0,1,1,2,2,3,3,4,4,5,5,6,6],"right_children":[2,4,6,8,10,12,14,-1,-1,-1,-1,-1,-1,-1,-1],"split_conditions":[1E0,1.925E2,1.09E2,2E0,7.7E1,7.4E1,3.269E1,-1.2984453E-2,9.357456E-4,9.496183E-2,4.6751507E-2,-1.7566286E-1,-1.4822317E-2,1.7214075E-3,1.4151047E-2],"split_indices":[1,2,2,36,14,14,13,0,0,0,0,0,0,0,0],"split_type":[0,0,0,0,0,0,0,0,0,0,0,0,0,0,0],"sum_hessian":[1.1908791E4,5.7706724E3,6.1381187E3,5.730254E3,4.041856E1,2.7095375E1,6.111023E3,3.3064211E3,2.4238325E3,2.4281935E1,1.6136623E1,1.3883108E1,1.3212267E1,3.9468438E3,2.1641794E3],"tree_param":{"num_deleted":"0","num_feature":"62","num_nodes":"15","size_leaf_vector":"1"}},{"base_weights":[-8.60108E-3,-5.6687556E-2,1.6797109E-1,-6.82928E-2,3.9360654E-1,-1.3609819E-1,1.9642705E-1,-7.532561E-3,2.1803476E-2,9.5085494E-2,2.7098633E-2,-1.3660594E-3,-6.655395E-2,1.4444772E-2,2.8207054E-2],"categories":[],"categories_nodes":[],"categories_segments":[],"categories_sizes":[],"default_left":[0,1,0,1,0,0,0,0,0,0,0,0,0,0,0],"id":69,"left_children":[1,3,5,7,9,11,13,-1,-1,-1,-1,-1,-1,-1,-1],"loss_changes":[1.0076006E2,4.8735115E1,2.1979134E1,7.2890564E1,1.1134785E1,1.758378E1,6.766304E0,0E0,0E0,0E0,0E0,0E0,0E0,0E0,0E0],"parents":[2147483647,0,0,1,1,2,2,3,3,4,4,5,5,6,6],"right_children":[2,4,6,8,10,12,14,-1,-1,-1,-1,-1,-1,-1,-1],"split_conditions":[7.3E1,6.5E1,1.961E1,1E0,7.05E1,2.1E1,1E0,-7.532561E-3,2.1803476E-2,9.5085494E-2,2.7098633E-2,-1.3660594E-3,-6.655395E-2,1.4444772E-2,2.8207054E-2],"split_indices":[0,32,13,34,12,36,43,0,0,0,0,0,0,0,0],"split_type":[0,0,0,0,0,0,0,0,0,0,0,0,0,0,0],"sum_hessian":[1.1867362E4,9.327347E3,2.5400156E3,9.093048E3,2.342991E2,2.1729309E2,2.3227227E3,8.487542E3,6.05506E2,1.7392363E1,2.1690674E2,1.8481677E2,3.247632E1,2.0525808E3,2.7014175E2],"tree_param":{"num_deleted":"0","num_feature":"62","num_nodes":"15","size_leaf_vector":"1"}},{"base_weights":[-4.0048677E-3,-2.6043138E-1,2.6007975E-2,1.6876301E-1,-2.8731394E-1,-3.826523E-3,2.3166321E-1,-2.6907193E-2,3.3835214E-2,-8.2340084E-2,-2.158315E-2,-7.226343E-3,6.163426E-3,-1.0025779E-2,2.3628028E-2],"categories":[],"categories_nodes":[],"categories_segments":[],"categories_sizes":[],"default_left":[0,0,0,0,0,0,0,0,0,0,0,0,0,0,0],"id":70,"left_children":[1,3,5,7,9,11,13,-1,-1,-1,-1,-1,-1,-1,-1],"loss_changes":[9.117867E1,1.432547E1,6.507557E1,8.941548E0,1.9423996E1,6.2139767E1,2.7421188E1,0E0,0E0,0E0,0E0,0E0,0E0,0E0,0E0],"parents":[2147483647,0,0,1,1,2,2,3,3,4,4,5,5,6,6],"right_children":[2,4,6,8,10,12,14,-1,-1,-1,-1,-1,-1,-1,-1],"split_conditions":[4E1,2E0,8.2E1,1E0,7.3E1,1E0,1E0,-2.6907193E-2,3.3835214E-2,-8.2340084E-2,-2.158315E-2,-7.226343E-3,6.163426E-3,-1.0025779E-2,2.3628028E-2],"split_indices":[0,40,0,61,14,1,61,0,0,0,0,0,0,0,0],"split_type":[0,0,0,0,0,0,0,0,0,0,0,0,0,0,0],"sum_hessian":[1.18467E4,1.2413655E3,1.0605335E4,7.3118935E1,1.1682465E3,9.261635E3,1.3437003E3,2.410282E1,4.9016113E1,3.626339E1,1.1319832E3,4.4795674E3,4.782067E3,1.8773589E2,1.1559645E3],"tree_param":{"num_deleted":"0","num_feature":"62","num_nodes":"15","size_leaf_vector":"1"}},{"base_weights":[9.040798E-3,-5.2704602E-2,6.7561E-2,-5.9636384E-2,9.030898E-1,-1.0975535E0,7.277306E-2,8.6484484E-2,-5.2485894E-3,9.419524E-2,5.946785E-2,-4.3410078E-2,-1.2686269E-1,-5.311104E-4,1.1485177E-2],"categories":[],"categories_nodes":[],"categories_segments":[],"categories_sizes":[],"default_left":[0,1,0,0,0,0,0,0,0,0,0,0,0,0,0],"id":71,"left_children":[1,3,5,7,9,11,13,-1,-1,-1,-1,-1,-1,-1,-1],"loss_changes":[4.2885715E1,3.824177E1,3.6980877E1,2.9557276E1,1.7749748E0,6.943119E0,3.26195E1,0E0,0E0,0E0,0E0,0E0,0E0,0E0,0E0],"parents":[2147483647,0,0,1,1,2,2,3,3,4,4,5,5,6,6],"right_children":[2,4,6,8,10,12,14,-1,-1,-1,-1,-1,-1,-1,-1],"split_conditions":[1E0,1.925E2,1.09E2,3E0,1.975E2,1E0,2.859E1,8.6484484E-2,-5.2485894E-3,9.419524E-2,5.946785E-2,-4.3410078E-2,-1.2686269E-1,-5.311104E-4,1.1485177E-2],"split_indices":[1,2,2,10,2,17,13,0,0,0,0,0,0,0,0],"split_type":[0,0,0,0,0,0,0,0,0,0,0,0,0,0,0],"sum_hessian":[1.1868576E4,5.774955E3,6.093621E3,5.7333994E3,4.155558E1,2.7117231E1,6.066504E3,2.3533104E1,5.7098667E3,1.7061926E1,2.4493654E1,1.2112512E1,1.5004721E1,2.7969104E3,3.2695938E3],"tree_param":{"num_deleted":"0","num_feature":"62","num_nodes":"15","size_leaf_vector":"1"}},{"base_weights":[-7.34665E-4,-1.8291293E-2,1.8515104E-2,9.9917865E-1,-2.1357087E-2,9.690284E-2,6.1937448E-2,-8.877725E-3,4.309071E-3],"categories":[],"categories_nodes":[],"categories_segments":[],"categories_sizes":[],"default_left":[1,0,0,0,0,0,0,0,0],"id":72,"left_children":[1,3,-1,5,7,-1,-1,-1,-1],"loss_changes":[4.7203373E1,3.422136E1,0E0,1.4396095E0,7.08236E1,0E0,0E0,0E0,0E0],"parents":[2147483647,0,0,1,1,3,3,4,4],"right_children":[2,4,-1,6,8,-1,-1,-1,-1],"split_conditions":[1E0,3E0,1.8515104E-2,2.37E2,1E0,9.690284E-2,6.1937448E-2,-8.877725E-3,4.309071E-3],"split_indices":[43,11,0,3,16,0,0,0,0],"split_type":[0,0,0,0,0,0,0,0,0],"sum_hessian":[1.1825389E4,1.0977875E4,8.475129E2,3.295496E1,1.0944921E4,1.8497578E1,1.445738E1,5.0246914E3,5.920229E3],"tree_param":{"num_deleted":"0","num_feature":"62","num_nodes":"9","size_leaf_vector":"1"}},{"base_weights":[5.160877E-3,-9.674804E-2,8.0567256E-2,-9.2253923E-1,-8.515625E-2,9.723916E-2,-2.8368977E-1,-3.7706062E-2,-1.3466793E-1,-2.8750814E-2,-4.7102333E-3,5.007644E-3,1.9808905E-2,-3.634994E-2,3.7097543E-2],"categories":[],"categories_nodes":[],"categories_segments":[],"categories_sizes":[],"default_left":[0,0,0,0,0,0,0,0,0,0,0,0,0,0,0],"id":73,"left_children":[1,3,5,7,9,11,13,-1,-1,-1,-1,-1,-1,-1,-1],"loss_changes":[9.084491E1,4.8099796E1,4.1257652E1,2.3230286E1,3.635982E1,3.390864E1,3.53788E1,0E0,0E0,0E0,0E0,0E0,0E0,0E0,0E0],"parents":[2147483647,0,0,1,1,2,2,3,3,4,4,5,5,6,6],"right_children":[2,4,6,8,10,12,14,-1,-1,-1,-1,-1,-1,-1,-1],"split_conditions":[5.8E1,1.09E2,1E0,1.05E2,3.1E1,8.2E1,1.3E1,-3.7706062E-2,-1.3466793E-1,-2.8750814E-2,-4.7102333E-3,5.007644E-3,1.9808905E-2,-3.634994E-2,3.7097543E-2],"split_indices":[0,2,58,2,0,0,37,0,0,0,0,0,0,0,0],"split_type":[0,0,0,0,0,0,0,0,0,0,0,0,0,0,0],"sum_hessian":[1.1821756E4,5.027275E3,6.794481E3,6.956321E1,4.9577114E3,6.497172E3,2.973089E2,4.2567905E1,2.6995302E1,4.6314056E2,4.494571E3,5.2085728E3,1.2885991E3,2.4400282E2,5.330609E1],"tree_param":{"num_deleted":"0","num_feature":"62","num_nodes":"15","size_leaf_vector":"1"}},{"base_weights":[2.1642157E-4,-3.7610125E-2,9.900459E-2,-1.5506485E-2,-2.2336943E-1,5.7883814E-2,2.2548053E-1,1.9042881E-2,-2.4257367E-3,-3.3247277E-2,1.9873334E-2,-4.2285528E-2,6.0668676E-3,2.5247745E-2,-1.0962213E-3],"categories":[],"categories_nodes":[],"categories_segments":[],"categories_sizes":[],"default_left":[0,1,0,0,0,0,0,0,0,0,0,0,0,0,0],"id":74,"left_children":[1,3,5,7,9,11,13,-1,-1,-1,-1,-1,-1,-1,-1],"loss_changes":[4.4122993E1,3.5050514E1,1.699702E1,2.6909025E1,7.778845E1,2.3253733E1,1.6022305E1,0E0,0E0,0E0,0E0,0E0,0E0,0E0,0E0],"parents":[2147483647,0,0,1,1,2,2,3,3,4,4,5,5,6,6],"right_children":[2,4,6,8,10,12,14,-1,-1,-1,-1,-1,-1,-1,-1],"split_conditions":[5E-1,5E0,1E0,5E0,2.963E1,1.961E1,4.243E1,1.9042881E-2,-2.4257367E-3,-3.3247277E-2,1.9873334E-2,-4.2285528E-2,6.0668676E-3,2.5247745E-2,-1.0962213E-3],"split_indices":[21,40,42,41,13,13,13,0,0,0,0,0,0,0,0],"split_type":[0,0,0,0,0,0,0,0,0,0,0,0,0,0,0],"sum_hessian":[1.1807266E4,8.537844E3,3.2694211E3,7.6300625E3,9.077815E2,2.4673894E3,8.020317E2,4.118283E2,7.2182344E3,6.514787E2,2.563028E2,6.825344E1,2.399136E3,5.942225E2,2.0780919E2],"tree_param":{"num_deleted":"0","num_feature":"62","num_nodes":"15","size_leaf_vector":"1"}},{"base_weights":[-7.867833E-3,-2.2134108E-2,1.7900623E-1,-1.1401723E-1,4.9110305E-2,1.9020554E-1,-2.6736695E-1,-2.920662E-2,-7.26525E-3,-7.431052E-3,7.6144445E-3,1.3104257E-2,2.6543358E-2,-7.9368055E-2,4.840218E-2],"categories":[],"categories_nodes":[],"categories_segments":[],"categories_sizes":[],"default_left":[1,0,0,0,0,0,0,0,0,0,0,0,0,0,0],"id":75,"left_children":[1,3,5,7,9,11,13,-1,-1,-1,-1,-1,-1,-1,-1],"loss_changes":[3.136023E1,7.155166E1,4.1689987E0,2.9145199E1,3.8030643E1,3.2555294E0,1.2343979E1,0E0,0E0,0E0,0E0,0E0,0E0,0E0,0E0],"parents":[2147483647,0,0,1,1,2,2,3,3,4,4,5,5,6,6],"right_children":[2,4,6,8,10,12,14,-1,-1,-1,-1,-1,-1,-1,-1],"split_conditions":[1E0,5.8E1,5E0,2.8E1,1E0,8.2E1,1E0,-2.920662E-2,-7.26525E-3,-7.431052E-3,7.6144445E-3,1.3104257E-2,2.6543358E-2,-7.9368055E-2,4.840218E-2],"split_indices":[43,0,40,0,61,0,38,0,0,0,0,0,0,0,0],"split_type":[0,0,0,0,0,0,0,0,0,0,0,0,0,0,0],"sum_hessian":[1.1764393E4,1.0930096E4,8.3429724E2,4.773757E3,6.1563384E3,8.139284E2,2.0368828E1,4.456813E2,4.3280757E3,1.4739935E3,4.6823447E3,6.666749E2,1.4725351E2,1.1212703E1,9.156124E0],"tree_param":{"num_deleted":"0","num_feature":"62","num_nodes":"15","size_leaf_vector":"1"}},{"base_weights":[7.931066E-3,-2.0606864E-2,1.4649755E-1,-8.82297E-2,3.7910488E-2,1.1652534E-1,3.494975E-1,-1.2815313E-2,1.0137596E-2,-6.9560506E-3,1.0464583E-2,-6.64098E-2,1.17821125E-2,8.4058076E-2,1.7832326E-2],"categories":[],"categories_nodes":[],"categories_segments":[],"categories_sizes":[],"default_left":[1,0,0,0,0,0,0,0,0,0,0,0,0,0,0],"id":76,"left_children":[1,3,5,7,9,11,13,-1,-1,-1,-1,-1,-1,-1,-1],"loss_changes":[4.659555E1,3.866268E1,1.2233002E1,6.606662E1,5.813201E1,4.513791E1,2.3042862E1,0E0,0E0,0E0,0E0,0E0,0E0,0E0,0E0],"parents":[2147483647,0,0,1,1,2,2,3,3,4,4,5,5,6,6],"right_children":[2,4,6,8,10,12,14,-1,-1,-1,-1,-1,-1,-1,-1],"split_conditions":[1E0,1E0,1E0,7.3E1,5.8E1,2.7E1,1E0,-1.2815313E-2,1.0137596E-2,-6.9560506E-3,1.0464583E-2,-6.64098E-2,1.17821125E-2,8.4058076E-2,1.7832326E-2],"split_indices":[42,1,44,0,0,0,61,0,0,0,0,0,0,0,0],"split_type":[0,0,0,0,0,0,0,0,0,0,0,0,0,0,0],"sum_hessian":[1.1782479E4,9.770142E3,2.0123375E3,4.532622E3,5.237519E3,1.7535479E3,2.5878967E2,3.4253062E3,1.107316E3,2.2149814E3,3.0225378E3,5.072799E1,1.70282E3,4.185394E1,2.1693573E2],"tree_param":{"num_deleted":"0","num_feature":"62","num_nodes":"15","size_leaf_vector":"1"}},{"base_weights":[5.148579E-3,-2.8291442E-2,1.0971355E-1,-9.277151E-2,5.923589E-2,1.8482544E-2,1.8388003E-1,8.460186E-2,-8.067325E-3,6.460568E-3,-5.105921E-2,2.4984195E-3,-9.106134E-2,5.6252964E-3,1.8716479E-2],"categories":[],"categories_nodes":[],"categories_segments":[],"categories_sizes":[],"default_left":[0,0,0,0,0,1,0,0,0,0,0,0,0,0,0],"id":77,"left_children":[1,3,5,7,9,11,13,-1,-1,-1,-1,-1,-1,-1,-1],"loss_changes":[4.1050117E1,5.0199684E1,1.9243488E1,3.455892E1,5.1233326E1,1.7469833E1,8.156223E0,0E0,0E0,0E0,0E0,0E0,0E0,0E0,0E0],"parents":[2147483647,0,0,1,1,2,2,3,3,4,4,5,5,6,6],"right_children":[2,4,6,8,10,12,14,-1,-1,-1,-1,-1,-1,-1,-1],"split_conditions":[1E0,6.3E1,1E0,3E0,1E0,1E0,1E0,8.460186E-2,-8.067325E-3,6.460568E-3,-5.105921E-2,2.4984195E-3,-9.106134E-2,5.6252964E-3,1.8716479E-2],"split_indices":[21,0,16,11,58,35,61,0,0,0,0,0,0,0,0],"split_type":[0,0,0,0,0,0,0,0,0,0,0,0,0,0,0],"sum_hessian":[1.1739287E4,8.894571E3,2.8447158E3,5.121732E3,3.7728394E3,1.2757493E3,1.5689666E3,2.6993206E1,5.094739E3,3.6665115E3,1.0632804E2,1.2622905E3,1.3458623E1,4.4301678E2,1.1259497E3],"tree_param":{"num_deleted":"0","num_feature":"62","num_nodes":"15","size_leaf_vector":"1"}},{"base_weights":[9.774482E-3,3.512102E-3,4.708792E-1,2.016714E-1,-1.5830176E-2,4.2117327E-1,1.1314221E-1,3.983502E-2,1.0997972E-2,-7.3726886E-5,-1.2851732E-2,-6.5845303E-4,3.893381E-2],"categories":[],"categories_nodes":[],"categories_segments":[],"categories_sizes":[],"default_left":[1,0,0,0,1,0,0,0,0,0,0,0,0],"id":78,"left_children":[1,3,5,7,9,11,-1,-1,-1,-1,-1,-1,-1],"loss_changes":[3.3971E1,4.4505775E1,7.120331E0,1.9782387E1,2.2338484E1,3.568447E0,0E0,0E0,0E0,0E0,0E0,0E0,0E0],"parents":[2147483647,0,0,1,1,2,2,3,3,4,4,5,5],"right_children":[2,4,6,8,10,12,-1,-1,-1,-1,-1,-1,-1],"split_conditions":[9.95E1,2E0,3.45E2,5E0,5E0,2E2,1.1314221E-1,3.983502E-2,1.0997972E-2,-7.3726886E-5,-1.2851732E-2,-6.5845303E-4,3.893381E-2],"split_indices":[12,40,3,41,40,3,0,0,0,0,0,0,0],"split_type":[0,0,0,0,0,0,0,0,0,0,0,0,0],"sum_hessian":[1.1768174E4,1.1610539E4,1.5763454E2,1.0326229E3,1.0577917E4,1.495307E2,8.103834E0,1.9604593E2,8.36577E2,9.56858E3,1.00933655E3,1.705375E1,1.3247694E2],"tree_param":{"num_deleted":"0","num_feature":"62","num_nodes":"13","size_leaf_vector":"1"}},{"base_weights":[6.8556843E-4,-7.1239494E-2,6.2208332E-2,-7.731454E-2,8.08856E-1,5.477734E-2,4.81372E-1,-7.608213E-3,1.0629391E-2,7.679118E-2,3.2853585E-2,4.80616E-3,-6.188036E-2,3.287073E-2,9.031227E-2],"categories":[],"categories_nodes":[],"categories_segments":[],"categories_sizes":[],"default_left":[0,1,1,1,1,1,0,0,0,0,0,0,0,0,0],"id":79,"left_children":[1,3,5,7,9,11,13,-1,-1,-1,-1,-1,-1,-1,-1],"loss_changes":[5.1718002E1,2.8791452E1,1.9609392E1,1.7559834E1,1.9377003E0,2.037952E1,5.372303E0,0E0,0E0,0E0,0E0,0E0,0E0,0E0,0E0],"parents":[2147483647,0,0,1,1,2,2,3,3,4,4,5,5,6,6],"right_children":[2,4,6,8,10,12,14,-1,-1,-1,-1,-1,-1,-1,-1],"split_conditions":[1E0,1E0,1.54E2,1E0,1E0,9.35E1,1.155E2,-7.608213E-3,1.0629391E-2,7.679118E-2,3.2853585E-2,4.80616E-3,-6.188036E-2,3.287073E-2,9.031227E-2],"split_indices":[16,9,2,43,10,12,12,0,0,0,0,0,0,0,0],"split_type":[0,0,0,0,0,0,0,0,0,0,0,0,0,0,0],"sum_hessian":[1.1687652E4,5.3881255E3,6.2995273E3,5.351215E3,3.6910625E1,6.189849E3,1.09678215E2,4.972119E3,3.7909534E2,2.7864943E1,9.045683E0,6.1591196E3,3.0729204E1,9.739188E1,1.2286334E1],"tree_param":{"num_deleted":"0","num_feature":"62","num_nodes":"15","size_leaf_vector":"1"}},{"base_weights":[-4.809674E-3,-6.710824E-2,4.8378065E-2,-1.454146E-1,3.2669252E-3,-3.366644E-1,6.1914776E-2,-1.2953422E-2,5.0280675E-2,-7.367365E-3,8.226554E-3,1.4116707E-1,-3.4449697E-2,-6.746283E-2,5.534954E-3],"categories":[],"categories_nodes":[],"categories_segments":[],"categories_sizes":[],"default_left":[0,0,0,1,0,0,0,0,0,0,0,0,0,0,0],"id":80,"left_children":[1,3,5,7,9,11,13,-1,-1,-1,-1,-1,-1,-1,-1],"loss_changes":[3.8653725E1,2.9611372E1,3.2792076E1,2.5442276E1,2.5765234E1,3.748803E1,3.1501314E1,0E0,0E0,0E0,0E0,0E0,0E0,0E0,0E0],"parents":[2147483647,0,0,1,1,2,2,3,3,4,4,5,5,6,6],"right_children":[2,4,6,8,10,12,14,-1,-1,-1,-1,-1,-1,-1,-1],"split_conditions":[1E0,2.938E1,1.785E1,1E0,1E0,7.85E1,6.1E1,-1.2953422E-2,5.0280675E-2,-7.367365E-3,8.226554E-3,1.4116707E-1,-3.4449697E-2,-6.746283E-2,5.534954E-3],"split_indices":[16,13,13,22,1,12,14,0,0,0,0,0,0,0,0],"split_type":[0,0,0,0,0,0,0,0,0,0,0,0,0,0,0],"sum_hessian":[1.1665323E4,5.372717E3,6.292607E3,2.543213E3,2.829504E3,2.1365335E2,6.0789536E3,2.5000305E3,4.3182457E1,1.4441562E3,1.3853475E3,8.44059E0,2.0521275E2,3.9705017E1,6.0392485E3],"tree_param":{"num_deleted":"0","num_feature":"62","num_nodes":"15","size_leaf_vector":"1"}},{"base_weights":[9.185993E-3,-1.24713965E-2,1.8096067E-1,-6.1646063E-2,1.01638965E-1,-1.2728146E-1,2.3310387E-1,-1.3267002E-2,-2.020271E-3,6.7650597E-3,3.9425485E-2,-1.8856632E-2,1.3339704E-2,1.4691358E-2,2.7890751E-2],"categories":[],"categories_nodes":[],"categories_segments":[],"categories_sizes":[],"default_left":[0,0,0,0,1,0,0,0,0,0,0,0,0,0,0],"id":81,"left_children":[1,3,5,7,9,11,13,-1,-1,-1,-1,-1,-1,-1,-1],"loss_changes":[4.3585125E1,5.8374043E1,2.10859E1,2.7037788E1,2.2456127E1,5.7104015E0,6.461014E0,0E0,0E0,0E0,0E0,0E0,0E0,0E0,0E0],"parents":[2147483647,0,0,1,1,2,2,3,3,4,4,5,5,6,6],"right_children":[2,4,6,8,10,12,14,-1,-1,-1,-1,-1,-1,-1,-1],"split_conditions":[8.2E1,1E0,1E0,1E0,2.96E2,1E0,1E0,-1.3267002E-2,-2.020271E-3,6.7650597E-3,3.9425485E-2,-1.8856632E-2,1.3339704E-2,1.4691358E-2,2.7890751E-2],"split_indices":[0,42,61,61,3,37,44,0,0,0,0,0,0,0,0],"split_type":[0,0,0,